{"learner":{"attributes":{"scikit_learn":"{\"_estimator_type\": \"classifier\"}"},"feature_names":[],"feature_types":[],"gradient_booster":{"model":{"gbtree_model_param":{"num_parallel_tree":"1","num_trees":"100"},"iteration_indptr":[0,1,2,3,4,5,6,7,8,9,10,11,12,13,14,15,16,17,18,19,20,21,22,23,24,25,26,27,28,29,30,31,32,33,34,35,36,37,38,39,40,41,42,43,44,45,46,47,48,49,50,51,52,53,54,55,56,57,58,59,60,61,62,63,64,65,66,67,68,69,70,71,72,73,74,75,76,77,78,79,80,81,82,83,84,85,86,87,88,89,90,91,92,93,94,95,96,97,98,99,100],"tree_info":[0,0,0,0,0,0,0,0,0,0,0,0,0,0,0,0,0,0,0,0,0,0,0,0,0,0,0,0,0,0,0,0,0,0,0,0,0,0,0,0,0,0,0,0,0,0,0,0,0,0,0,0,0,0,0,0,0,0,0,0,0,0,0,0,0,0,0,0,0,0,0,0,0,0,0,0,0,0,0,0,0,0,0,0,0,0,0,0,0,0,0,0,0,0,0,0,0,0,0,0],"trees":[{"base_weights":[1.4946849E-8,1.1437504E0,-1.5120684E0,-1.9948123E0,1.2801489E0,1.9498092E0,-1.5773182E0,3.3343583E-1,-1.9963356E0,1.341984E0,-1.6848594E0,-4.6652332E-1,1.9623891E0,1.8025284E-1,-1.6586291E0,-6.656423E-2,-5.990834E-1,1.9082571E0,1.1721444E0,5.694058E-1,-1.7296125E0,-4.5868257E-1,1.9741424E0,1.8528858E0,-8.328764E-2,4.9342936E-1,-1.6954039E0,1.9222262E0,-5.8530253E-1,1.2179329E0,-1.3404124E0,5.4799455E-1,-1.7554996E0,1.9795858E0,-2.7260998E-1,-2.398894E-1,1.866519E0,9.328847E-1,-4.7972158E-1,1.9207803E0,9.154694E-3,1.4287918E0,-1.7161975E0,-4.934959E-1,5.7787913E-1,-5.8121985E-1,3.7476197E-1,5.744649E-1,-4.3644273E-1,5.295746E-1,-5.322635E-1,-1.9989759E-1,5.949669E-1,1.10635774E-4,5.623616E-1,5.7896143E-1,1.8094513E-1,5.927748E-1,-1.8286826E-1,5.7986623E-1,5.46628E-2,5.843918E-1,-4.85398E-2,-5.617322E-1,4.7210371E-1,5.972532E-1,-5.19038E-1],"categories":[],"categories_nodes":[],"categories_segments":[],"categories_sizes":[],"default_left":[1,0,0,0,1,0,0,0,0,0,0,0,0,0,0,0,0,1,1,0,0,0,1,0,0,0,0,0,0,0,0,0,0,0,0,0,0,0,0,1,0,0,0,0,0,0,0,0,0,0,0,0,0,0,0,0,0,0,0,0,0,0,0,0,0,0,0],"id":0,"left_children":[1,3,5,7,9,11,13,-1,15,17,19,-1,21,23,25,-1,-1,27,29,-1,31,-1,33,35,37,39,41,43,-1,45,47,-1,49,51,-1,-1,53,55,57,59,61,63,65,-1,-1,-1,-1,-1,-1,-1,-1,-1,-1,-1,-1,-1,-1,-1,-1,-1,-1,-1,-1,-1,-1,-1,-1],"loss_changes":[2.391748E5,3.371E4,1.3456609E4,1.7738281E1,1.3837148E4,5.1651855E1,8.3544375E3,0E0,3.0996094E0,7.1069062E3,2.5053369E2,0E0,4.810498E1,1.1399696E3,4.4227188E3,0E0,0E0,9.2310156E2,6.543867E3,0E0,1.4346289E2,0E0,1.8990234E1,1.4221558E1,9.007057E2,6.493929E2,3.5711406E3,2.4789844E2,0E0,5.513539E3,3.819768E2,0E0,1.0280859E2,1.1847168E1,0E0,0E0,5.244751E0,2.0512079E2,5.1397595E2,4.6574707E0,2.3315787E2,1.7693042E2,2.8213125E3,0E0,0E0,0E0,0E0,0E0,0E0,0E0,0E0,0E0,0E0,0E0,0E0,0E0,0E0,0E0,0E0,0E0,0E0,0E0,0E0,0E0,0E0,0E0,0E0],"parents":[2147483647,0,0,1,1,2,2,3,3,4,4,5,5,6,6,8,8,9,9,10,10,12,12,13,13,14,14,17,17,18,18,20,20,22,22,23,23,24,24,25,25,26,26,27,27,29,29,30,30,32,32,33,33,36,36,37,37,38,38,39,39,40,40,41,41,42,42],"right_children":[2,4,6,8,10,12,14,-1,16,18,20,-1,22,24,26,-1,-1,28,30,-1,32,-1,34,36,38,40,42,44,-1,46,48,-1,50,52,-1,-1,54,56,58,60,62,64,66,-1,-1,-1,-1,-1,-1,-1,-1,-1,-1,-1,-1,-1,-1,-1,-1,-1,-1,-1,-1,-1,-1,-1,-1],"split_conditions":[3.6315985E-2,1.1426482E0,3.309724E-1,4.01994E-1,1.4850588E-1,3.675025E-1,1.926533E-1,3.3343583E-1,2.0449677E-1,2.00001E0,1.8218517E0,-4.6652332E-1,5.234048E-1,4.5565403E-1,9.1131806E-1,-6.656423E-2,-5.990834E-1,1.8249159E-1,1.5542676E-1,5.694058E-1,3.4117433E-1,-4.5868257E-1,1.24383725E-1,2.1127647E-1,1.3389571E-1,6.087778E-1,5.5550677E-1,3.7122926E-1,-5.8530253E-1,2.636389E-1,2.2880742E-1,5.4799455E-1,1.2305429E0,1.9134295E-1,-2.7260998E-1,-2.398894E-1,2.5541174E-1,8.523013E-2,5.8629133E-2,2.7590397E-1,5.470342E-1,1.3780417E0,5.1649135E-1,-4.934959E-1,5.7787913E-1,-5.8121985E-1,3.7476197E-1,5.744649E-1,-4.3644273E-1,5.295746E-1,-5.322635E-1,-1.9989759E-1,5.949669E-1,1.10635774E-4,5.623616E-1,5.7896143E-1,1.8094513E-1,5.927748E-1,-1.8286826E-1,5.7986623E-1,5.46628E-2,5.843918E-1,-4.85398E-2,-5.617322E-1,4.7210371E-1,5.972532E-1,-5.19038E-1],"split_indices":[396305,391805,395126,141477,111062,387134,301921,0,353851,301921,347970,0,332086,353851,353851,0,0,339015,398812,0,102068,0,28100,278270,301921,245838,212218,111045,0,28100,207553,0,378664,27777,0,0,212934,301921,396305,93529,381488,301787,226751,0,0,0,0,0,0,0,0,0,0,0,0,0,0,0,0,0,0,0,0,0,0,0,0],"split_type":[0,0,0,0,0,0,0,0,0,0,0,0,0,0,0,0,0,0,0,0,0,0,0,0,0,0,0,0,0,0,0,0,0,0,0,0,0,0,0,0,0,0,0,0,0,0,0,0,0,0,0,0,0,0,0,0,0,0,0,0,0,0,0,0,0,0,0],"sum_hessian":[1.3829498E5,7.873724E4,5.9557742E4,3.2787495E3,7.545849E4,1.1012499E3,5.8456492E4,1.2499999E0,3.2774995E3,7.391749E4,1.5409998E3,3.4999995E0,1.0977499E3,2.5847498E3,5.5871742E4,1.2499999E0,3.2762495E3,1.7052248E4,5.6865242E4,1.8499998E1,1.5224999E3,3.2499995E0,1.0944999E3,3.5099997E2,2.2337498E3,9.384999E2,5.4933242E4,1.6991248E4,6.0999992E1,5.5847992E4,1.0172499E3,1.0499999E1,1.5119999E3,1.0927499E3,1.7499998E0,1.4999998E0,3.4949997E2,6.2649994E2,1.6072498E3,2.3699997E2,7.0149994E2,3.6274997E2,5.4570492E4,1.8749998E1,1.6972498E4,5.4749994E2,5.5300492E4,3.3999996E1,9.832499E2,7.499999E0,1.5044999E3,1.2499999E0,1.0914999E3,1.4999998E0,3.4799997E2,1.5449998E2,4.7199994E2,7.999999E1,1.5272499E3,2.3524997E2,1.7499998E0,5.5999992E1,6.4549994E2,1.4749998E1,3.4799997E2,2.0374997E2,5.4366742E4],"tree_param":{"num_deleted":"0","num_feature":"403159","num_nodes":"67","size_leaf_vector":"1"}},{"base_weights":[-1.2920959E-3,8.4980166E-1,-1.1364827E0,-1.544634E0,9.499167E-1,1.4991952E0,-1.1861975E0,2.8263888E-1,-1.5459557E0,9.95315E-1,-1.2819728E0,-3.7555823E-1,1.509223E0,3.572357E-1,-1.2427418E0,-5.5509154E-2,-4.6393818E-1,-7.325301E-1,1.0193774E0,4.4387612E-1,-1.3163666E0,-3.7495625E-1,1.5193001E0,1.4297456E0,1.6271655E-1,3.9825323E-1,-1.2731459E0,1.0368302E0,-7.2953147E-1,6.836173E-1,-1.3316597E0,1.5307176E0,-1.8619072E-1,-1.4191674E-1,1.4422911E0,8.203359E-1,-1.0290065E-1,1.4866941E0,2.7316531E-2,1.0971637E0,-1.2894863E0,4.4096094E-1,2.7352887E-1,4.2949367E-1,-4.0558144E-1,-3.2199723E-1,4.604535E-1,-2.575171E-1,1.7092998E-1,-1.4992443E-1,4.3516314E-1,-6.286493E-1,2.7912387E-1,4.715788E-1,-5.7952527E-2,4.5066473E-1,7.300673E-2,-3.878359E-1,6.855697E-2,-7.093334E-1,3.6088955E-1,7.740256E-1,-3.8954046E-1],"categories":[],"categories_nodes":[],"categories_segments":[],"categories_sizes":[],"default_left":[1,0,0,0,1,0,0,0,0,0,0,0,0,0,0,0,0,0,1,0,0,0,0,0,0,0,0,0,0,0,0,0,0,0,0,0,0,1,0,0,0,0,0,0,0,0,0,0,0,0,0,0,0,0,0,0,0,0,0,0,0,0,0],"id":1,"left_children":[1,3,5,7,9,11,13,-1,15,17,19,-1,21,23,25,-1,-1,-1,27,-1,29,-1,31,33,35,37,39,41,-1,-1,43,45,47,-1,49,51,53,55,57,59,61,-1,-1,-1,-1,-1,-1,-1,-1,-1,-1,-1,-1,-1,-1,-1,-1,-1,-1,-1,-1,-1,-1],"loss_changes":[1.26432734E5,1.7929934E4,7.349078E3,1.1323242E1,7.275172E3,3.053833E1,4.8034688E3,0E0,1.7753906E0,5.8213984E3,1.3791821E2,0E0,3.0681152E1,4.0569614E2,2.6493281E3,0E0,0E0,0E0,4.2109375E3,0E0,8.080249E1,0E0,2.0378418E1,7.8102417E0,2.8797614E2,3.901822E2,2.0203047E3,3.7637266E3,0E0,0E0,8.0896484E1,1.2665527E1,4.4291058E0,0E0,5.483032E0,1.5418057E2,1.7793683E2,4.375061E0,1.9203363E2,1.3374606E2,1.8026016E3,0E0,0E0,0E0,0E0,0E0,0E0,0E0,0E0,0E0,0E0,0E0,0E0,0E0,0E0,0E0,0E0,0E0,0E0,0E0,0E0,0E0,0E0],"parents":[2147483647,0,0,1,1,2,2,3,3,4,4,5,5,6,6,8,8,9,9,10,10,12,12,13,13,14,14,18,18,20,20,22,22,23,23,24,24,25,25,26,26,27,27,30,30,31,31,32,32,34,34,35,35,36,36,37,37,38,38,39,39,40,40],"right_children":[2,4,6,8,10,12,14,-1,16,18,20,-1,22,24,26,-1,-1,-1,28,-1,30,-1,32,34,36,38,40,42,-1,-1,44,46,48,-1,50,52,54,56,58,60,62,-1,-1,-1,-1,-1,-1,-1,-1,-1,-1,-1,-1,-1,-1,-1,-1,-1,-1,-1,-1,-1,-1],"split_conditions":[3.4944464E-2,1.1426482E0,9.533656E-1,4.01994E-1,1.5380955E-1,5.234048E-1,1.7630158E-1,2.8263888E-1,2.0449677E-1,6.587817E-1,1.8218517E0,-3.7555823E-1,3.675025E-1,4.5565403E-1,9.1131806E-1,-5.5509154E-2,-4.6393818E-1,-7.325301E-1,1.2596698E-1,4.4387612E-1,4.3679422E-1,-3.7495625E-1,1.0389531E-1,2.1127647E-1,1.23403706E-1,6.087778E-1,5.5550677E-1,2.518523E-1,-7.2953147E-1,6.836173E-1,3.4117433E-1,9.015854E-1,1.0492349E-1,-1.4191674E-1,2.4993278E-1,1.8249182E-1,5.4136522E-2,2.1867506E-1,4.215894E-1,4.7757003E-1,1.9492235E0,4.4096094E-1,2.7352887E-1,4.2949367E-1,-4.0558144E-1,-3.2199723E-1,4.604535E-1,-2.575171E-1,1.7092998E-1,-1.4992443E-1,4.3516314E-1,-6.286493E-1,2.7912387E-1,4.715788E-1,-5.7952527E-2,4.5066473E-1,7.300673E-2,-3.878359E-1,6.855697E-2,-7.093334E-1,3.6088955E-1,7.740256E-1,-3.8954046E-1],"split_indices":[396305,391805,395126,141477,111062,332086,301921,0,353851,87368,347970,0,387134,353851,353851,0,0,0,299362,0,28832,0,396305,278270,301921,245838,212218,301921,0,0,102068,266999,396305,0,212934,359924,396305,301921,183072,174299,159466,0,0,0,0,0,0,0,0,0,0,0,0,0,0,0,0,0,0,0,0,0,0],"split_type":[0,0,0,0,0,0,0,0,0,0,0,0,0,0,0,0,0,0,0,0,0,0,0,0,0,0,0,0,0,0,0,0,0,0,0,0,0,0,0,0,0,0,0,0,0,0,0,0,0,0,0,0,0,0,0,0,0,0,0,0,0,0,0],"sum_hessian":[1.3085993E5,7.478851E4,5.6071418E4,3.0009456E3,7.178756E4,1.0375135E3,5.5033906E4,1.2160136E0,2.9997295E3,7.035701E4,1.4305588E3,3.318305E0,1.0341953E3,1.9447463E3,5.308916E4,1.2485907E0,2.998481E3,4.884325E2,6.986857E4,1.7080837E1,1.4134779E3,3.3157952E0,1.0308795E3,2.9759003E2,1.6471564E3,9.655136E2,5.2123645E4,6.951771E4,3.5086023E2,5.3603773E0,1.4081176E3,1.0241259E3,6.7535996E0,1.7087939E0,2.9588123E2,4.7328967E2,1.1738667E3,2.4464449E2,7.2086914E2,3.5641708E2,5.176723E4,1.5575963E4,5.394175E4,9.751158E0,1.3983665E3,1.2107261E0,1.02291516E3,3.5031164E0,3.2504833E0,1E0,2.9488123E2,1.6561247E1,4.5672842E2,5.9196774E1,1.1146699E3,2.414224E2,3.2220795E0,9.462383E1,6.262453E2,9.937416E0,3.4647964E2,1.1921768E2,5.164801E4],"tree_param":{"num_deleted":"0","num_feature":"403159","num_nodes":"63","size_leaf_vector":"1"}},{"base_weights":[-3.5913708E-3,6.556658E-1,-9.362144E-1,7.3046035E-1,-1.4011431E0,1.2872818E0,-9.746647E-1,1.2496276E0,6.002614E-1,1.1548442E0,-1.4513761E0,-3.2086173E-1,1.2969886E0,3.5103425E-2,-1.0412953E0,1.2637596E0,-5.4462665E-1,6.234674E-1,-2.4678833E0,-3.422262E-1,1.3709896E0,4.2678243E-1,-1.4738102E0,-3.2046613E-1,1.306749E0,1.20848E0,-9.194113E-2,5.3767204E-1,-1.0543166E0,1.2696041E0,-1.7204847E0,-1.5668476E0,6.5586644E-1,-5.014457E-1,-2.8650355E0,-3.98249E-2,1.4140326E0,-4.033533E-1,-2.1021152E0,1.3185766E0,-1.4982425E-1,-1.757545E-1,1.2195041E0,2.5766168E0,-1.5691608E-1,2.3196298E-1,-1.0783322E0,3.8251165E-1,-5.49034E-1,3.1780484E-1,-6.579465E-1,5.1614904E-1,-4.7417796E-1,2.0777516E-1,-3.658439E-1,2.7975753E-1,-8.6739165E-1,1.01181716E-1,4.305716E-1,2.2632001E-1,-6.632504E-1,-2.3254088E-1,3.9713722E-1,2.5842324E-1,-1.5147637E-1,-5.2632947E-2,3.677546E-1,5.6454104E-1,9.6842045E-1,1.6344343E-1,-1.145814E-1,3.7810948E-1,-1.0946132E-2,9.0144813E-1,-3.2545492E-1],"categories":[],"categories_nodes":[],"categories_segments":[],"categories_sizes":[],"default_left":[1,1,0,0,0,0,0,1,1,0,0,0,0,0,0,1,0,0,0,0,0,0,0,0,0,0,0,0,0,1,0,0,1,0,0,0,0,0,0,0,0,0,0,0,0,0,0,0,0,0,0,0,0,0,0,0,0,0,0,0,0,0,0,0,0,0,0,0,0,0,0,0,0,0,0],"id":2,"left_children":[1,3,5,7,9,11,13,15,17,19,21,-1,23,25,27,29,-1,31,33,-1,35,-1,37,-1,39,41,43,-1,45,47,49,51,53,-1,55,-1,57,-1,59,61,63,-1,65,67,69,71,73,-1,-1,-1,-1,-1,-1,-1,-1,-1,-1,-1,-1,-1,-1,-1,-1,-1,-1,-1,-1,-1,-1,-1,-1,-1,-1,-1,-1],"loss_changes":[7.238777E4,1.0612201E4,4.169801E3,4.4981484E3,3.1246973E2,2.035852E1,3.224836E3,5.8028906E2,3.790334E3,2.4989937E1,1.5518701E2,0E0,2.0471558E1,4.4254007E2,1.6608711E3,2.3385938E2,0E0,3.7490137E3,1.2162134E2,0E0,3.0099869E0,0E0,1.8861426E2,0E0,1.4382324E1,6.4513245E0,4.6489465E2,0E0,1.3828555E3,2.2566797E2,3.6995422E1,3.7519775E1,3.5846309E3,0E0,2.9160889E1,0E0,4.8582458E-1,0E0,1.2601709E2,9.943481E0,3.1388502E0,0E0,2.768982E0,2.277353E1,4.1330908E2,2.2674942E2,1.1725273E3,0E0,0E0,0E0,0E0,0E0,0E0,0E0,0E0,0E0,0E0,0E0,0E0,0E0,0E0,0E0,0E0,0E0,0E0,0E0,0E0,0E0,0E0,0E0,0E0,0E0,0E0,0E0,0E0],"parents":[2147483647,0,0,1,1,2,2,3,3,4,4,5,5,6,6,7,7,8,8,9,9,10,10,12,12,13,13,14,14,15,15,17,17,18,18,20,20,22,22,24,24,25,25,26,26,28,28,29,29,30,30,31,31,32,32,34,34,36,36,38,38,39,39,40,40,42,42,43,43,44,44,45,45,46,46],"right_children":[2,4,6,8,10,12,14,16,18,20,22,-1,24,26,28,30,-1,32,34,-1,36,-1,38,-1,40,42,44,-1,46,48,50,52,54,-1,56,-1,58,-1,60,62,64,-1,66,68,70,72,74,-1,-1,-1,-1,-1,-1,-1,-1,-1,-1,-1,-1,-1,-1,-1,-1,-1,-1,-1,-1,-1,-1,-1,-1,-1,-1,-1,-1],"split_conditions":[3.857526E-2,1.5477858E-1,9.533656E-1,2.00001E0,2.7449942E-1,5.234048E-1,2.1867506E-1,1.8249159E-1,1.6508192E-1,2.5464562E-1,3.1647027E-1,-3.2086173E-1,3.675025E-1,4.5565403E-1,5.1649135E-1,2.982484E-1,-5.4462665E-1,2.636389E-1,3.9402902E-1,-3.422262E-1,3.9426026E-1,4.2678243E-1,1.1426482E0,-3.2046613E-1,1.0389531E-1,2.1127647E-1,3.707029E-1,5.3767204E-1,9.1131806E-1,3.0990872E-1,6.123938E-1,4.7955185E-1,1.5542676E-1,-5.014457E-1,1.7127466E0,-3.98249E-2,2.9085964E-1,-4.033533E-1,1.7630158E-1,2.1465985E-1,3.309724E-1,-1.757545E-1,3.318635E-1,1.8024234E-1,3.3647606E-1,6.087778E-1,4.7012988E-1,3.8251165E-1,-5.49034E-1,3.1780484E-1,-6.579465E-1,5.1614904E-1,-4.7417796E-1,2.0777516E-1,-3.658439E-1,2.7975753E-1,-8.6739165E-1,1.01181716E-1,4.305716E-1,2.2632001E-1,-6.632504E-1,-2.3254088E-1,3.9713722E-1,2.5842324E-1,-1.5147637E-1,-5.2632947E-2,3.677546E-1,5.6454104E-1,9.6842045E-1,1.6344343E-1,-1.145814E-1,3.7810948E-1,-1.0946132E-2,9.0144813E-1,-3.2545492E-1],"split_indices":[396305,166911,395126,301921,353851,332086,301921,339015,188501,391805,395126,0,387134,353851,226751,181646,0,28100,87368,0,102068,0,391805,0,396305,278270,80478,0,353851,181704,104161,45424,398812,0,185899,0,334369,0,301921,28100,395126,0,183072,301921,213328,245838,156268,0,0,0,0,0,0,0,0,0,0,0,0,0,0,0,0,0,0,0,0,0,0,0,0,0,0,0,0],"split_type":[0,0,0,0,0,0,0,0,0,0,0,0,0,0,0,0,0,0,0,0,0,0,0,0,0,0,0,0,0,0,0,0,0,0,0,0,0,0,0,0,0,0,0,0,0,0,0,0,0,0,0,0,0,0,0,0,0,0,0,0,0,0,0,0,0,0,0,0,0,0,0,0,0,0,0],"sum_hessian":[1.17732625E5,6.897531E4,4.8757312E4,6.65557E4,2.4196099E3,8.282611E2,4.792905E4,1.3342798E4,5.3212906E4,4.6212376E1,2.3733975E3,2.9494467E0,8.2531165E2,2.9669055E3,4.4962145E4,1.3282145E4,6.0652523E1,5.281424E4,3.986651E2,3.608642E0,4.2603733E1,1.7899727E1,2.3554978E3,2.946109E0,8.2236554E2,2.8902005E2,2.6778855E3,2.0505025E2,4.4757094E4,1.3256757E4,2.53878E1,7.6914813E2,5.204509E4,1.3438846E2,2.6427664E2,1.1275598E0,4.1476173E1,1.9560922E3,3.9940555E2,8.158356E2,6.5299573E0,1.4464674E0,2.8757358E2,6.2733402E1,2.615152E3,8.201674E2,4.393693E4,1.3234143E4,2.261423E1,3.5091045E0,2.1878696E1,2.685673E0,7.6646246E2,5.1046285E4,9.988056E2,1.5785837E0,2.6269806E2,1.1275598E0,4.0348614E1,1.4426319E1,3.8497925E2,1.6598723E0,8.141757E2,1.3265107E0,5.203447E0,1.181355E0,2.8639224E2,3.2238094E1,3.0495308E1,6.3463403E2,1.9805181E3,1.6901088E2,6.5115656E2,6.928626E1,4.386764E4],"tree_param":{"num_deleted":"0","num_feature":"403159","num_nodes":"75","size_leaf_vector":"1"}},{"base_weights":[-5.325193E-3,5.271943E-1,-7.724794E-1,-1.2793009E0,5.925837E-1,1.7621396E-1,-8.440625E-1,-1.4064416E0,-3.6901057E-1,6.308109E-1,-1.1350237E0,6.0048884E-1,-1.0677091E-1,1.1505768E0,-8.678406E-1,5.444717E-2,-1.4100362E0,-3.2861705E0,6.46834E-1,3.6081636E-1,-1.1597476E0,-6.5313023E-1,6.508789E-1,1.4454904E0,-2.0956185E-1,-2.828676E-1,1.1639637E0,1.0754834E0,-8.8547343E-1,-2.1473429E-1,-4.2434308E-1,-3.749846E-1,-1.0001047E0,6.6625655E-1,-2.5813048E0,5.030642E-1,-1.1764604E0,6.977284E-1,-6.192339E-1,4.1371328E-1,5.3390497E-1,1.5945177E0,-2.8385705E-1,-2.825756E-1,1.1774743E0,-4.4955942E-1,1.1857797E0,3.6485171E0,-8.918244E-1,8.867374E-3,-1.04965895E-1,2.0518388E-1,-8.5727733E-1,-9.667502E-1,-6.3872546E-1,-3.5806817E-1,3.4201473E-1,1.7649111E-1,4.8642138E-1,3.5651094E-1,5.463661E-1,7.8721166E-1,-9.9974684E-2,3.584234E-1,-2.8719781E-2,-4.268363E-1,3.799424E-1,4.7470796E-1,1.1916956E0,5.7916737E-1,-2.7041647E-1],"categories":[],"categories_nodes":[],"categories_segments":[],"categories_sizes":[],"default_left":[1,0,0,1,1,0,0,0,0,0,0,0,0,0,0,0,0,0,1,0,0,0,1,0,0,0,0,0,0,0,0,0,0,1,0,0,1,0,0,0,0,0,0,0,0,0,0,0,0,0,0,0,0,0,0,0,0,0,0,0,0,0,0,0,0,0,0,0,0,0,0],"id":3,"left_children":[1,3,5,7,9,11,13,15,-1,17,19,21,23,25,27,-1,29,31,33,-1,35,-1,37,39,41,-1,43,45,47,49,-1,-1,-1,51,53,-1,55,57,-1,-1,-1,59,61,-1,63,-1,65,67,69,-1,-1,-1,-1,-1,-1,-1,-1,-1,-1,-1,-1,-1,-1,-1,-1,-1,-1,-1,-1,-1,-1],"loss_changes":[4.2811992E4,7.3077676E3,2.916129E3,1.1806885E1,3.9432559E3,3.6186597E2,1.8946445E3,3.661255E0,0E0,3.6678105E3,7.611133E1,1.701933E2,2.8887363E2,1.4291321E1,1.3529824E3,0E0,2.8565674E0,1.8868896E1,3.6488418E3,0E0,6.2640137E1,0E0,1.5218655E2,4.2816162E-2,2.2792336E2,0E0,1.4431152E1,1.0263165E2,1.1292129E3,1.22023955E-1,0E0,0E0,0E0,3.6063203E3,9.4072754E1,0E0,5.177893E1,1.1687622E2,0E0,0E0,0E0,4.030197E0,2.3510492E2,0E0,1.0354553E1,0E0,7.362479E1,3.0438538E1,1.0557637E3,0E0,0E0,0E0,0E0,0E0,0E0,0E0,0E0,0E0,0E0,0E0,0E0,0E0,0E0,0E0,0E0,0E0,0E0,0E0,0E0,0E0,0E0],"parents":[2147483647,0,0,1,1,2,2,3,3,4,4,5,5,6,6,7,7,9,9,10,10,11,11,12,12,13,13,14,14,16,16,17,17,18,18,20,20,22,22,23,23,24,24,26,26,27,27,28,28,29,29,33,33,34,34,36,36,37,37,41,41,42,42,44,44,46,46,47,47,48,48],"right_children":[2,4,6,8,10,12,14,16,-1,18,20,22,24,26,28,-1,30,32,34,-1,36,-1,38,40,42,-1,44,46,48,50,-1,-1,-1,52,54,-1,56,58,-1,-1,-1,60,62,-1,64,-1,66,68,70,-1,-1,-1,-1,-1,-1,-1,-1,-1,-1,-1,-1,-1,-1,-1,-1,-1,-1,-1,-1,-1,-1],"split_conditions":[3.3188492E-2,1.1426482E0,2.0911035E-1,1.5477858E-1,1.4850588E-1,6.629918E-2,9.533656E-1,1.2950787E-1,-3.6901057E-1,1.6397806E0,1.8218517E0,2.0726258E-1,1.5036845E-1,5.234048E-1,5.5550677E-1,5.444717E-2,2.3758645E-1,2.636389E-1,1.5040909E-1,3.6081636E-1,3.2504618E-1,-6.5313023E-1,1.3614228E-1,1.2431045E-1,3.579816E-1,-2.828676E-1,3.675025E-1,1.3780417E0,4.4353113E-1,2.1427335E-1,-4.2434308E-1,-3.749846E-1,-1.0001047E0,1.1344362E-1,3.7833163E-1,5.030642E-1,1.7404057E-1,1.509457E-1,-6.192339E-1,4.1371328E-1,5.3390497E-1,3.017943E-1,4.3174574E-1,-2.825756E-1,1.0389531E-1,-4.4955942E-1,4.7757003E-1,2.4971059E-1,1.9492235E0,8.867374E-3,-1.04965895E-1,2.0518388E-1,-8.5727733E-1,-9.667502E-1,-6.3872546E-1,-3.5806817E-1,3.4201473E-1,1.7649111E-1,4.8642138E-1,3.5651094E-1,5.463661E-1,7.8721166E-1,-9.9974684E-2,3.584234E-1,-2.8719781E-2,-4.268363E-1,3.799424E-1,4.7470796E-1,1.1916956E0,5.7916737E-1,-2.7041647E-1],"split_indices":[396305,391805,301921,166911,111062,396305,395126,301921,0,169374,347970,28100,301921,332086,212218,0,353851,28100,119882,0,28650,0,91837,301921,80478,0,387134,301787,265524,353851,0,0,0,78162,242875,0,353851,301921,0,0,0,395126,211619,0,396305,0,174299,353851,159466,0,0,0,0,0,0,0,0,0,0,0,0,0,0,0,0,0,0,0,0,0,0],"split_type":[0,0,0,0,0,0,0,0,0,0,0,0,0,0,0,0,0,0,0,0,0,0,0,0,0,0,0,0,0,0,0,0,0,0,0,0,0,0,0,0,0,0,0,0,0,0,0,0,0,0,0,0,0,0,0,0,0,0,0,0,0,0,0,0,0,0,0,0,0,0,0],"sum_hessian":[1.0479461E5,6.185696E4,4.293765E4,2.1601624E3,5.9696797E4,3.0124238E3,3.9925227E4,5.9558374E2,1.5645785E3,5.8405086E4,1.2917095E3,1.2048655E3,1.8075585E3,4.6978226E2,3.945544E4,1.2333994E0,5.9435034E2,2.3711096E2,5.8167977E4,1.301949E1,1.27869E3,2.071673E1,1.1841488E3,1.1145144E2,1.696107E3,2.5438106E0,4.6723843E2,3.5424234E2,3.91012E4,2.3826044E0,5.919677E2,6.0290694E0,2.310819E2,5.7820883E4,3.470941E2,6.9077916E0,1.2717822E3,1.1647922E3,1.9356491E1,9.724344E1,1.4207998E1,6.6276634E1,1.6298303E3,2.5404677E0,4.6469797E2,1.4038363E1,3.4020398E2,5.389226E1,3.904731E4,1.1269323E0,1.2556722E0,5.7532875E4,2.8800833E2,1.4101921E2,2.0607489E2,1.2629441E3,8.8381E0,1.0428824E3,1.21909775E2,2.5977938E1,4.0298695E1,2.635042E1,1.60348E3,4.5853973E2,6.1582375E0,9.709219E0,3.3049475E2,8.099113E0,4.5793148E1,1.3118932E2,3.8916117E4],"tree_param":{"num_deleted":"0","num_feature":"403159","num_nodes":"71","size_leaf_vector":"1"}},{"base_weights":[-6.8352995E-3,4.0328878E-1,-6.68562E-1,1.0437363E0,2.7390543E-1,6.2053615E-1,-7.0812565E-1,1.0598202E0,-4.7116253E-1,3.3065864E-1,-1.1894317E0,-5.151034E-1,6.962168E-1,4.6923938E-1,-7.4868137E-1,1.0666869E0,-2.866298E0,1.3520148E0,2.5757417E-1,8.2059205E-1,-1.2440722E0,8.1234545E-1,-7.484982E-1,2.0367732E0,3.3488283E-1,1.8395907E0,-7.628642E-1,-1.4571023E0,1.0698512E0,-9.5835805E-1,-4.6028608E-1,1.3429991E0,2.2128417E0,1.2235862E0,1.7881855E-1,9.773747E-1,-1.214223E0,3.7449124E-1,-1.2731396E0,8.898138E-1,-1.2753887E0,7.0269775E-1,-9.1815466E-1,3.9068678E-1,3.8278258E0,2.6352072E-1,2.7735527E0,3.505885E-1,3.5002837E0,3.9519594E0,-7.698246E-1,3.2304108E-1,-3.6720636E-1,8.016782E-2,4.030018E-1,3.414496E-1,6.881581E-1,-3.653342E-1,3.732121E-1,8.3347924E-2,-2.2169268E-1,-2.6479653E-1,3.3203292E-1,-4.802852E-1,-1.138856E-1,3.5815778E-1,-3.8789958E-1,-5.1448506E-1,2.8078583E-1,2.4888988E-1,-4.2516387E-1,5.873285E-1,-3.3227178E-1,2.735989E-1,1.2780836E0,4.4201055E-1,4.1483745E-2,6.0819066E-1,1.0527892E0,5.785793E-1,1.3212821E0,2.785749E-1,1.451099E0,4.821231E-1,-2.3511928E-1],"categories":[],"categories_nodes":[],"categories_segments":[],"categories_sizes":[],"default_left":[1,0,0,1,1,0,0,1,0,0,0,0,1,0,0,0,1,1,0,1,0,1,0,0,1,0,0,0,1,0,0,0,0,0,1,0,0,0,0,0,0,0,0,0,0,0,0,0,0,0,0,0,0,0,0,0,0,0,0,0,0,0,0,0,0,0,0,0,0,0,0,0,0,0,0,0,0,0,0,0,0,0,0,0,0],"id":4,"left_children":[1,3,5,7,9,11,13,15,-1,17,19,-1,21,23,25,27,29,31,33,35,37,39,41,43,45,47,49,-1,51,-1,-1,53,55,57,59,61,63,-1,65,67,69,-1,71,-1,73,75,77,-1,79,81,83,-1,-1,-1,-1,-1,-1,-1,-1,-1,-1,-1,-1,-1,-1,-1,-1,-1,-1,-1,-1,-1,-1,-1,-1,-1,-1,-1,-1,-1,-1,-1,-1,-1,-1],"loss_changes":[2.5353678E4,4.7788945E3,1.8235391E3,4.0923047E2,3.9853796E3,1.8959207E2,1.6563828E3,2.6279492E2,0E0,3.447726E3,1.9780103E2,0E0,1.7379315E2,2.4267566E2,1.232168E3,1.8548535E2,2.5714111E0,2.0966309E1,3.279494E3,1.6506031E1,1.2798633E2,1.5574182E2,4.26965E1,1.14757904E2,1.8469211E2,1.9983203E2,1.0973516E3,0E0,1.546416E2,0E0,0E0,7.5878906E-1,3.829956E-2,1.6377881E2,3.6223203E3,1.1841221E1,6.449523E-1,0E0,8.605786E1,1.1245105E2,1.1509319E1,0E0,4.2489025E1,0E0,2.8844604E1,1.5681778E2,9.45993E0,0E0,6.561786E1,1.27473694E2,1.1018652E3,0E0,0E0,0E0,0E0,0E0,0E0,0E0,0E0,0E0,0E0,0E0,0E0,0E0,0E0,0E0,0E0,0E0,0E0,0E0,0E0,0E0,0E0,0E0,0E0,0E0,0E0,0E0,0E0,0E0,0E0,0E0,0E0,0E0,0E0],"parents":[2147483647,0,0,1,1,2,2,3,3,4,4,5,5,6,6,7,7,9,9,10,10,12,12,13,13,14,14,15,15,16,16,17,17,18,18,19,19,20,20,21,21,22,22,23,23,24,24,25,25,26,26,28,28,31,31,32,32,33,33,34,34,35,35,36,36,38,38,39,39,40,40,42,42,44,44,45,45,46,46,48,48,49,49,50,50],"right_children":[2,4,6,8,10,12,14,16,-1,18,20,-1,22,24,26,28,30,32,34,36,38,40,42,44,46,48,50,-1,52,-1,-1,54,56,58,60,62,64,-1,66,68,70,-1,72,-1,74,76,78,-1,80,82,84,-1,-1,-1,-1,-1,-1,-1,-1,-1,-1,-1,-1,-1,-1,-1,-1,-1,-1,-1,-1,-1,-1,-1,-1,-1,-1,-1,-1,-1,-1,-1,-1,-1,-1],"split_conditions":[4.1692946E-2,2.00001E0,9.1131806E-1,1.8249159E-1,8.219549E-2,7.91191E-1,2.7276167E-1,1.0258834E-1,-4.7116253E-1,9.533656E-1,2.7449942E-1,-5.151034E-1,1.9909196E-1,1.1590613E-1,5.312493E-1,1.2252128E0,3.4944464E-2,1.5542676E-1,4.5565403E-1,3.0985596E-2,3.1647027E-1,2.2575487E-1,1.1800344E0,2.100764E-1,2.8129768E-1,9.533656E-1,1.9663664E0,-1.4571023E0,2.982484E-1,-9.5835805E-1,-4.6028608E-1,2.4929373E-1,2.20472E-1,2.3379172E-1,9.192567E-2,2.5464562E-1,2.1596548E-1,3.7449124E-1,4.3141007E-1,6.072471E-1,2.6684648E-1,7.0269775E-1,3.1317207E-1,3.9068678E-1,3.309724E-1,3.1303835E-1,2.5656015E-1,3.505885E-1,1.7765436E-1,6.358151E-2,5.1649135E-1,3.2304108E-1,-3.6720636E-1,8.016782E-2,4.030018E-1,3.414496E-1,6.881581E-1,-3.653342E-1,3.732121E-1,8.3347924E-2,-2.2169268E-1,-2.6479653E-1,3.3203292E-1,-4.802852E-1,-1.138856E-1,3.5815778E-1,-3.8789958E-1,-5.1448506E-1,2.8078583E-1,2.4888988E-1,-4.2516387E-1,5.873285E-1,-3.3227178E-1,2.735989E-1,1.2780836E0,4.4201055E-1,4.1483745E-2,6.0819066E-1,1.0527892E0,5.785793E-1,1.3212821E0,2.785749E-1,1.451099E0,4.821231E-1,-2.3511928E-1],"split_indices":[396305,301921,353851,339015,166911,117782,213328,28100,0,395126,353851,0,183072,213328,213121,184875,396305,398812,353851,396305,395126,102068,212926,301921,84422,395126,114100,0,181646,0,0,308271,207553,28100,207562,391805,278733,0,237521,102174,245838,0,182226,0,395126,207553,213328,0,301921,396305,226751,0,0,0,0,0,0,0,0,0,0,0,0,0,0,0,0,0,0,0,0,0,0,0,0,0,0,0,0,0,0,0,0,0,0],"split_type":[0,0,0,0,0,0,0,0,0,0,0,0,0,0,0,0,0,0,0,0,0,0,0,0,0,0,0,0,0,0,0,0,0,0,0,0,0,0,0,0,0,0,0,0,0,0,0,0,0,0,0,0,0,0,0,0,0,0,0,0,0,0,0,0,0,0,0,0,0,0,0,0,0,0,0,0,0,0,0,0,0,0,0,0,0],"sum_hessian":[9.3419555E4,5.767451E4,3.5745043E4,9.692009E3,4.7982504E4,1.0639458E3,3.4681098E4,9.633337E3,5.8672256E1,4.61918E4,1.7907018E3,3.268603E1,1.0312598E3,1.1544987E3,3.3526598E4,9.617244E3,1.6092081E1,3.083424E3,4.310838E4,4.7019234E1,1.7436826E3,9.549379E2,7.63218E1,9.002463E1,1.064474E3,1.820113E2,3.3344586E4,4.3156548E0,9.612929E3,1.1788849E1,4.3032327E0,3.053999E3,2.9425222E1,3.248456E3,3.985992E4,4.4138065E1,2.8811677E0,1.9617756E1,1.7240648E3,9.2132465E2,3.3613262E1,3.3049788E0,7.301682E1,6.506823E1,2.4956398E1,1.0352867E3,2.9187254E1,1.3084877E2,5.116254E1,4.8318047E1,3.329627E4,9.58441E3,2.8518429E1,1.2138586E0,3.0527852E3,3.1177557E0,2.6307467E1,2.650344E1,3.2219526E3,3.5979316E4,3.8806035E3,2.4923131E0,4.1645756E1,1.3413951E0,1.5397725E0,1.3295506E1,1.7107693E3,1.5406121E1,9.059185E2,1.8155951E0,3.1797667E1,3.9350843E0,6.908174E1,3.6248174E0,2.1331581E1,9.610804E1,9.391787E2,1.635458E1,1.2832674E1,1.98261E1,3.1336441E1,1.1405364E1,3.691268E1,1.9300432E2,3.3103266E4],"tree_param":{"num_deleted":"0","num_feature":"403159","num_nodes":"85","size_leaf_vector":"1"}},{"base_weights":[-5.0793285E-3,3.3023098E-1,-5.3518873E-1,9.7331643E-1,2.2322789E-1,2.0647743E-1,-6.074209E-1,9.848058E-1,-1.4126809E0,-1.170547E0,2.6875207E-1,3.5541645E-1,1.2908249E-1,4.2791786E0,-6.155714E-1,-1.6471064E0,9.88267E-1,2.8851077E-1,-1.6094584E0,-1.2855045E0,-3.3236325E-1,1.2351363E0,2.1053834E-1,2.1436703E0,9.208756E-2,2.6568832E0,1.8643358E0,-4.8008364E-1,-9.0015334E-1,-2.1307871E0,9.955606E-1,2.2237132E-1,-1.7186707E0,-5.2300002E-2,-3.863534E-1,1.2300704E0,4.8250303E-1,2.3329031E-1,-2.699115E0,4.1885096E-1,2.5649755E0,2.1997793E0,5.5639926E-2,4.2281085E-1,2.852795E0,-4.930427E-1,2.9285176E0,1.4229834E0,-9.367802E-1,-4.3898922E-1,-7.509694E-1,-1.6030402E0,2.9943413E-1,2.2237132E-1,-5.508593E-1,5.2828077E-2,3.6914346E-1,-5.8026993E-1,7.802454E-2,-6.381004E-1,-1.1918639E0,3.562476E-1,8.2938707E-1,4.61685E-1,8.8665366E-1,5.089226E-1,2.3775855E-3,5.832662E-3,2.058853E-1,9.1435724E-1,2.4297799E-1,-1.505891E-1,1.2783387E0,3.4620214E-1,1.3147076E0,-3.2270336E-1,4.3476906E-1,1.8409648E0,-2.8368565E-1],"categories":[],"categories_nodes":[],"categories_segments":[],"categories_sizes":[],"default_left":[1,0,0,1,0,0,0,0,0,1,0,0,0,0,0,0,0,0,0,0,0,1,1,0,0,0,0,1,0,0,0,0,0,0,0,0,0,0,0,0,0,0,0,0,1,1,0,0,0,0,0,0,0,0,0,0,0,0,0,0,0,0,0,0,0,0,0,0,0,0,0,0,0,0,0,0,0,0,0],"id":5,"left_children":[1,3,5,7,9,11,13,15,17,19,21,-1,23,25,27,-1,29,-1,31,33,-1,35,37,39,41,43,-1,45,47,49,51,-1,53,-1,-1,55,-1,57,59,-1,61,63,65,67,69,71,73,75,77,-1,-1,-1,-1,-1,-1,-1,-1,-1,-1,-1,-1,-1,-1,-1,-1,-1,-1,-1,-1,-1,-1,-1,-1,-1,-1,-1,-1,-1,-1],"loss_changes":[1.5002E4,3.557247E3,1.7519707E3,2.0355713E2,2.8127285E3,2.1962746E2,1.189458E3,1.6992383E2,1.825206E1,8.677368E0,2.4144753E3,0E0,2.0037466E2,1.3966724E2,1.1466504E3,0E0,1.6902783E2,0E0,9.845963E0,1.0456543E0,0E0,2.63208E0,2.6808096E3,1.1687561E1,2.0296706E2,1.1402252E1,0E0,8.9181055E2,8.17709E2,6.7137146E-1,1.2381055E2,0E0,1.0672775E1,0E0,0E0,8.190918E-1,0E0,2.333373E3,2.2052026E2,0E0,4.915863E0,1.7881866E1,2.0351982E2,3.58257E-1,8.016006E0,8.5381396E2,1.9226813E2,1.1351196E1,5.963496E2,0E0,0E0,0E0,0E0,0E0,0E0,0E0,0E0,0E0,0E0,0E0,0E0,0E0,0E0,0E0,0E0,0E0,0E0,0E0,0E0,0E0,0E0,0E0,0E0,0E0,0E0,0E0,0E0,0E0,0E0],"parents":[2147483647,0,0,1,1,2,2,3,3,4,4,5,5,6,6,7,7,8,8,9,9,10,10,12,12,13,13,14,14,16,16,18,18,19,19,21,21,22,22,23,23,24,24,25,25,27,27,28,28,29,29,30,30,32,32,35,35,37,37,38,38,40,40,41,41,42,42,43,43,44,44,45,45,46,46,47,47,48,48],"right_children":[2,4,6,8,10,12,14,16,18,20,22,-1,24,26,28,-1,30,-1,32,34,-1,36,38,40,42,44,-1,46,48,50,52,-1,54,-1,-1,56,-1,58,60,-1,62,64,66,68,70,72,74,76,78,-1,-1,-1,-1,-1,-1,-1,-1,-1,-1,-1,-1,-1,-1,-1,-1,-1,-1,-1,-1,-1,-1,-1,-1,-1,-1,-1,-1,-1,-1],"split_conditions":[3.0985596E-2,2.2466725E-1,2.1867506E-1,3.0990872E-1,1.1426482E0,3.309724E-1,5.563201E-1,5.0498205E-1,4.5488697E-1,9.029815E-2,9.533656E-1,3.5541645E-1,4.749703E-1,4.1996646E-1,9.1785595E-2,-1.6471064E0,3.7122926E-1,2.8851077E-1,1.6489891E0,2.1427335E-1,-3.3236325E-1,1.5542676E-1,1.1723628E-1,5.8629133E-2,4.7012988E-1,3.4944464E-2,1.8643358E0,2.4923958E-2,5.5550677E-1,2.2507001E-1,5.9316325E-1,2.2237132E-1,3.372645E-1,-5.2300002E-2,-3.863534E-1,4.2875823E-1,4.8250303E-1,6.587817E-1,4.2718136E-1,4.1885096E-1,1.2950787E-1,1.6178776E-1,4.2682374E-1,1.4339268E-1,9.055608E-2,6.4516544E-2,2.9543343E-1,2.3312359E-1,6.3744324E-1,-4.3898922E-1,-7.509694E-1,-1.6030402E0,2.9943413E-1,2.2237132E-1,-5.508593E-1,5.2828077E-2,3.6914346E-1,-5.8026993E-1,7.802454E-2,-6.381004E-1,-1.1918639E0,3.562476E-1,8.2938707E-1,4.61685E-1,8.8665366E-1,5.089226E-1,2.3775855E-3,5.832662E-3,2.058853E-1,9.1435724E-1,2.4297799E-1,-1.505891E-1,1.2783387E0,3.4620214E-1,1.3147076E0,-3.2270336E-1,4.3476906E-1,1.8409648E0,-2.8368565E-1],"split_indices":[396305,301921,301921,181704,391805,395126,193077,256334,382997,166911,395126,0,381355,193077,396305,0,111045,0,277869,353851,0,398812,394461,396305,156268,396305,0,304572,212218,28100,126013,0,333756,0,0,124179,0,87368,394461,0,301921,301921,212218,193077,207562,241650,395126,301921,69740,0,0,0,0,0,0,0,0,0,0,0,0,0,0,0,0,0,0,0,0,0,0,0,0,0,0,0,0,0,0],"split_type":[0,0,0,0,0,0,0,0,0,0,0,0,0,0,0,0,0,0,0,0,0,0,0,0,0,0,0,0,0,0,0,0,0,0,0,0,0,0,0,0,0,0,0,0,0,0,0,0,0,0,0,0,0,0,0,0,0,0,0,0,0,0,0,0,0,0,0,0,0,0,0,0,0,0,0,0,0,0,0],"sum_hessian":[8.43969E4,5.169722E4,3.2699682E4,7.373656E3,4.4323562E4,2.9018801E3,2.9797803E4,7.338904E3,3.4752018E1,1.4011464E3,4.2922414E4,2.1170448E2,2.6901758E3,4.874488E1,2.9749057E4,3.0738227E0,7.33583E3,2.3621588E0,3.2389862E1,4.8746204E2,9.136844E2,2.4375386E3,4.0484875E4,4.7483425E1,2.6426924E3,2.7807426E1,2.0937454E1,2.0155729E4,9.59333E3,1.6434832E1,7.319395E3,1.1810794E0,3.120878E1,1.1831199E0,4.862789E2,2.4091328E3,2.8405788E1,4.0171676E4,3.1320178E2,1.8670752E1,2.8812672E1,4.3913445E1,2.5987788E3,2.4965255E0,2.5310902E1,2.008024E4,7.5486984E1,1.4831465E2,9.445015E3,7.6512527E0,8.78358E0,2.1046424E0,7.3172905E3,1.1810794E0,3.0027702E1,1.0991307E0,2.4080337E3,4.896059E2,3.968207E4,2.1797E2,9.5231804E1,4.5269074E0,2.4285765E1,2.504762E1,1.8865824E1,7.246214E1,2.5263167E3,1.4106545E0,1.0858709E0,2.2655682E1,2.6552193E0,2.0043525E4,3.6715946E1,3.4802254E1,4.068473E1,1.1261199E0,1.4718854E2,1.0922189E1,9.434093E3],"tree_param":{"num_deleted":"0","num_feature":"403159","num_nodes":"79","size_leaf_vector":"1"}},{"base_weights":[-4.7487635E-3,2.4491616E-1,-4.6731013E-1,1.0706737E0,1.7076458E-1,1.1006845E0,-4.945466E-1,1.0834656E0,-1.9165622E0,1.936782E-1,-2.140659E0,-2.1958871E-1,1.1090091E0,-3.7245092E-1,-7.802663E-1,-1.3714328E0,1.0943948E0,-2.0617893E0,1.9087972E-2,2.1767136E-1,-1.9500192E0,-2.7096024E0,-1.3022273E0,-2.0781213E-1,1.1165488E0,-3.794615E-1,5.7677574E0,-7.897849E-1,2.2350934E0,2.6239657E-1,-1.6910348E0,1.1006206E0,-7.78682E-1,-2.1375206E0,-2.2166382E-1,2.3569879E-1,-2.672718E0,3.525758E-1,-2.0146527E0,-4.6086204E-1,-3.1110988E0,-1.3135409E0,7.900082E-2,-2.5979525E-1,1.1230085E0,2.0233345E0,-3.9749706E-1,2.6022294E-1,6.010631E0,-8.213256E-1,1.2937986E0,1.9349773E-1,-5.769812E-1,-6.5096617E-1,3.3215812E-1,-2.711346E-1,-6.741018E-1,8.173595E-2,-3.3704364E-1,-6.0173833E-1,-1.0772098E0,3.4941685E-1,-6.2273914E-1,2.6348546E-1,-9.475122E-1,-4.632633E-1,-3.5832846E-1,-2.0585349E-1,3.3861697E-1,-2.776603E-1,6.1914957E-1,1.5506314E-1,-1.3141008E-1,8.86058E-1,1.9222894E0,6.871996E-1,-2.5135714E-1,2.0681475E-1,3.9498797E-1],"categories":[],"categories_nodes":[],"categories_segments":[],"categories_sizes":[],"default_left":[1,0,0,1,1,0,0,0,1,1,1,0,0,1,1,0,1,1,0,1,0,0,1,0,0,0,0,1,0,0,0,0,0,0,0,1,0,0,0,0,0,0,0,0,0,0,0,0,0,0,0,0,0,0,0,0,0,0,0,0,0,0,0,0,0,0,0,0,0,0,0,0,0,0,0,0,0,0,0],"id":6,"left_children":[1,3,5,7,9,11,13,15,17,19,21,-1,23,25,27,29,31,33,-1,35,37,39,41,-1,43,45,47,49,-1,-1,51,53,-1,55,-1,57,59,-1,61,-1,63,65,-1,-1,67,69,71,-1,73,75,77,-1,-1,-1,-1,-1,-1,-1,-1,-1,-1,-1,-1,-1,-1,-1,-1,-1,-1,-1,-1,-1,-1,-1,-1,-1,-1,-1,-1],"loss_changes":[8.909779E3,3.0678813E3,1.1555249E3,1.5983643E2,2.4355884E3,7.86084E0,9.270786E2,1.1181445E2,5.2974243E0,2.34213E3,2.1180078E2,0E0,7.0272827E0,8.039944E2,6.2933545E2,1.4879562E1,9.690527E1,1.0044861E-1,0E0,2.3467288E3,1.04180664E2,1.2147717E2,3.6122131E0,0E0,6.8485107E0,8.071218E2,2.0142029E1,5.2349316E2,0E0,0E0,1.0291161E1,9.027783E1,0E0,4.0046692E-2,0E0,2.2356802E3,1.6370862E2,0E0,9.848804E1,0E0,4.0248047E1,3.1905518E0,0E0,0E0,5.5073853E0,1.8483826E1,6.8477026E2,0E0,5.505615E0,4.0482764E2,7.3332214E-1,0E0,0E0,0E0,0E0,0E0,0E0,0E0,0E0,0E0,0E0,0E0,0E0,0E0,0E0,0E0,0E0,0E0,0E0,0E0,0E0,0E0,0E0,0E0,0E0,0E0,0E0,0E0,0E0],"parents":[2147483647,0,0,1,1,2,2,3,3,4,4,5,5,6,6,7,7,8,8,9,9,10,10,12,12,13,13,14,14,15,15,16,16,17,17,19,19,20,20,21,21,22,22,24,24,25,25,26,26,27,27,30,30,31,31,33,33,35,35,36,36,38,38,40,40,41,41,44,44,45,45,46,46,48,48,49,49,50,50],"right_children":[2,4,6,8,10,12,14,16,18,20,22,-1,24,26,28,30,32,34,-1,36,38,40,42,-1,44,46,48,50,-1,-1,52,54,-1,56,-1,58,60,-1,62,-1,64,66,-1,-1,68,70,72,-1,74,76,78,-1,-1,-1,-1,-1,-1,-1,-1,-1,-1,-1,-1,-1,-1,-1,-1,-1,-1,-1,-1,-1,-1,-1,-1,-1,-1,-1,-1],"split_conditions":[4.4752732E-2,4.5565403E-1,9.533656E-1,5.2649766E-2,5.2649766E-2,3.675025E-1,9.218674E-2,2.0898564E-1,1.5507045E-1,1.0117094E-1,3.4944464E-2,-2.1958871E-1,5.234048E-1,1.2753658E-1,4.5873073E-1,2.9940307E-1,2.0329319E-1,1.757038E-1,1.9087972E-2,1.6032605E-1,1.0431061E0,2.2507001E-1,1.8451452E-1,-2.0781213E-1,1.8031808E0,4.7012988E-1,3.0486602E-1,3.7960845E-1,2.2350934E0,2.6239657E-1,3.349703E-1,2.2296847E-1,-7.78682E-1,1.3839723E-1,-2.2166382E-1,1.0492481E-1,9.693085E-1,3.525758E-1,4.8832616E-1,-4.6086204E-1,1.0914226E0,3.857526E-2,7.900082E-2,-2.5979525E-1,2.1896033E-1,4.0242076E-1,4.5565403E-1,2.6022294E-1,2.4183531E-1,1.9663664E0,4.110194E-1,1.9349773E-1,-5.769812E-1,-6.5096617E-1,3.3215812E-1,-2.711346E-1,-6.741018E-1,8.173595E-2,-3.3704364E-1,-6.0173833E-1,-1.0772098E0,3.4941685E-1,-6.2273914E-1,2.6348546E-1,-9.475122E-1,-4.632633E-1,-3.5832846E-1,-2.0585349E-1,3.3861697E-1,-2.776603E-1,6.1914957E-1,1.5506314E-1,-1.3141008E-1,8.86058E-1,1.9222894E0,6.871996E-1,-2.5135714E-1,2.0681475E-1,3.9498797E-1],"split_indices":[396305,353851,395126,359924,359924,387134,396305,278270,2679,278270,396305,0,332086,171217,212422,144470,117782,353430,0,242875,247458,28100,20698,0,266999,156268,212218,212218,0,0,245838,27777,0,28100,0,166911,119882,0,250845,0,191172,396305,0,0,27777,53587,353851,0,171217,114100,212218,0,0,0,0,0,0,0,0,0,0,0,0,0,0,0,0,0,0,0,0,0,0,0,0,0,0,0,0],"split_type":[0,0,0,0,0,0,0,0,0,0,0,0,0,0,0,0,0,0,0,0,0,0,0,0,0,0,0,0,0,0,0,0,0,0,0,0,0,0,0,0,0,0,0,0,0,0,0,0,0,0,0,0,0,0,0,0,0,0,0,0,0,0,0,0,0,0,0,0,0,0,0,0,0,0,0,0,0,0,0],"sum_hessian":[7.714874E4,5.0105207E4,2.7043535E4,4.1275093E3,4.5977695E4,4.610598E2,2.6582477E4,4.1105444E3,1.6964705E1,4.552729E4,4.504052E2,1.691757E0,4.5936807E2,1.8625572E4,7.9569023E3,1.7667425E1,4.0928772E3,1.5767134E1,1.1975706E0,4.5024258E4,5.0303183E2,2.6699557E2,1.8340964E2,1.5356164E0,4.5783246E2,1.860527E4,2.0304317E1,7.9486143E3,8.288482E0,1.9844527E0,1.5682973E1,4.0866838E3,6.1932817E0,1.4330973E1,1.4361619E0,4.4746094E4,2.78164E2,9.844193E0,4.9318762E2,6.929712E1,1.9769846E2,1.8225354E2,1.1560936E0,1.0547553E0,4.5677768E2,1.3778377E2,1.8467484E4,1.174685E0,1.9129631E1,7.830681E3,1.17932884E2,1.2574227E0,1.44255495E1,7.5368786E0,4.079147E3,1.9224652E0,1.2408507E1,4.3568727E4,1.1773701E3,1.6295808E2,1.15205894E2,8.965247E0,4.8422238E2,2.10947E0,1.9558899E2,5.7989216E1,1.2426433E2,1.0633676E0,4.5571432E2,1.5705106E0,1.3621326E2,7.8345605E2,1.768403E4,3.16869E0,1.5960941E1,4.0651505E1,7.79003E3,5.427512E0,1.1250537E2],"tree_param":{"num_deleted":"0","num_feature":"403159","num_nodes":"79","size_leaf_vector":"1"}},{"base_weights":[-4.3687243E-3,1.7781045E-1,-4.0425304E-1,8.429324E-1,9.017614E-2,1.6891006E-1,-4.7079065E-1,8.590379E-1,-4.359605E-1,1.1308299E-1,-2.070911E0,1.4085084E-1,3.2376256E0,-4.753436E-1,2.233182E0,-5.466125E-1,8.707836E-1,1.1447418E0,6.656893E-2,-2.4542236E0,-1.2431464E0,3.9583817E-1,7.631314E-2,7.2656053E-1,1.1557223E0,1.491601E0,-4.9222696E-1,8.774422E-1,-2.667664E0,-4.7246136E-2,1.1455323E0,-1.341306E0,9.771253E-2,-3.212906E0,-1.2556411E0,-4.5874685E-1,-1.1716914E0,1.4788209E0,2.4631727E-2,3.112136E-1,1.537172E0,-4.9944058E-1,4.162084E0,2.6623476E-1,-3.193503E-1,-2.4510986E-1,-8.392112E-1,3.5733555E-2,3.438177E-1,3.2449532E-1,-4.0478358E-1,3.9221026E-2,-3.9198032E-1,-5.785382E-1,-1.0322807E0,2.3678632E-1,-3.9175957E-1,-2.2355435E-2,-3.5406148E-1,3.102738E-1,4.8286048E-1,6.184626E-1,-3.6960007E-3,3.5374776E-1,4.739174E-1,5.59721E-1,-1.5389732E-1,3.0492973E-1,1.6071886E0],"categories":[],"categories_nodes":[],"categories_segments":[],"categories_sizes":[],"default_left":[1,0,0,1,1,1,1,0,0,0,1,0,0,0,0,0,1,0,0,1,0,0,0,0,0,0,1,1,0,0,0,0,1,0,0,0,0,0,0,0,0,0,0,0,0,0,0,0,0,0,0,0,0,0,0,0,0,0,0,0,0,0,0,0,0,0,0,0,0],"id":7,"left_children":[1,3,5,7,9,11,13,15,-1,17,19,21,23,25,-1,-1,27,29,31,33,35,-1,37,-1,-1,39,41,43,45,-1,47,49,51,53,55,-1,57,59,61,-1,63,65,67,-1,-1,-1,-1,-1,-1,-1,-1,-1,-1,-1,-1,-1,-1,-1,-1,-1,-1,-1,-1,-1,-1,-1,-1,-1,-1],"loss_changes":[5.211871E3,2.8647627E3,8.540332E2,2.1284375E2,2.1501455E3,2.0015216E2,7.265166E2,1.8054004E2,0E0,2.0621372E3,1.4149512E2,1.75588E2,1.2339478E0,6.66647E2,0E0,0E0,1.3566016E2,2.0888672E0,1.8031697E3,2.7817737E2,1.1964417E0,0E0,1.587662E2,0E0,0E0,1.9429626E0,6.696221E2,1.1071387E2,3.250122E-1,0E0,8.654785E-1,1.8652222E1,1.8660209E3,4.8839966E1,1.3554443E1,0E0,1.0447388E0,2.8591614E0,1.5914296E2,0E0,4.7183228E-1,6.3721826E2,1.1063568E2,0E0,0E0,0E0,0E0,0E0,0E0,0E0,0E0,0E0,0E0,0E0,0E0,0E0,0E0,0E0,0E0,0E0,0E0,0E0,0E0,0E0,0E0,0E0,0E0,0E0,0E0],"parents":[2147483647,0,0,1,1,2,2,3,3,4,4,5,5,6,6,7,7,9,9,10,10,11,11,12,12,13,13,16,16,17,17,18,18,19,19,20,20,22,22,25,25,26,26,27,27,28,28,30,30,31,31,32,32,33,33,34,34,36,36,37,37,38,38,40,40,41,41,42,42],"right_children":[2,4,6,8,10,12,14,16,-1,18,20,22,24,26,-1,-1,28,30,32,34,36,-1,38,-1,-1,40,42,44,46,-1,48,50,52,54,56,-1,58,60,62,-1,64,66,68,-1,-1,-1,-1,-1,-1,-1,-1,-1,-1,-1,-1,-1,-1,-1,-1,-1,-1,-1,-1,-1,-1,-1,-1,-1,-1],"split_conditions":[5.161317E-2,2.2466725E-1,2.2321367E-1,1.8249159E-1,6.311329E-2,2.7014786E-1,2.9570824E-1,2.3161574E-1,-4.359605E-1,9.533656E-1,3.4944464E-2,1.17262736E-1,1.7094824E-1,5.1649135E-1,2.233182E0,-5.466125E-1,1.2243536E-1,1.8255076E-1,2.636389E-1,1.4850588E-1,1.4120856E-1,3.9583817E-1,3.6638308E-1,7.2656053E-1,1.1557223E0,3.062947E-1,6.0140625E-2,1.5678275E-1,1.6691883E-1,-4.7246136E-2,3.2029444E-1,4.7955185E-1,1.6132241E-1,2.1321522E-1,3.4117433E-1,-4.5874685E-1,2.4091284E-1,3.1647027E-1,6.5433747E-1,3.112136E-1,4.115046E-1,1.9492235E0,3.1647027E-1,2.6623476E-1,-3.193503E-1,-2.4510986E-1,-8.392112E-1,3.5733555E-2,3.438177E-1,3.2449532E-1,-4.0478358E-1,3.9221026E-2,-3.9198032E-1,-5.785382E-1,-1.0322807E0,2.3678632E-1,-3.9175957E-1,-2.2355435E-2,-3.5406148E-1,3.102738E-1,4.8286048E-1,6.184626E-1,-3.6960007E-3,3.5374776E-1,4.739174E-1,5.59721E-1,-1.5389732E-1,3.0492973E-1,1.6071886E0],"split_indices":[396305,301921,301921,339015,27777,306647,158194,28100,0,395126,396305,301921,301921,226751,0,0,27777,28100,28100,111062,27777,0,80478,0,0,395126,143499,181646,359924,0,140155,45424,398812,359924,102068,0,306647,395126,153127,0,149079,159466,395126,0,0,0,0,0,0,0,0,0,0,0,0,0,0,0,0,0,0,0,0,0,0,0,0,0,0],"split_type":[0,0,0,0,0,0,0,0,0,0,0,0,0,0,0,0,0,0,0,0,0,0,0,0,0,0,0,0,0,0,0,0,0,0,0,0,0,0,0,0,0,0,0,0,0,0,0,0,0,0,0,0,0,0,0,0,0,0,0,0,0,0,0,0,0,0,0,0,0],"sum_hessian":[7.153993E4,4.9149137E4,2.2390795E4,5.7208364E3,4.34283E4,2.328789E3,2.0062006E4,5.6816104E3,3.9225895E1,4.2973742E4,4.5456064E2,2.3087249E3,2.0064234E1,2.005141E4,1.059464E1,2.4110226E1,5.6575E3,1.8529357E3,4.1120805E4,3.0934665E2,1.4521397E2,1.1884744E2,2.1898774E3,1.07454405E1,9.318792E0,1.6990398E2,1.9881508E4,5.6476245E3,9.875521E0,1.0038115E0,1.8519319E3,8.8903625E2,4.023177E4,1.8840741E2,1.2093925E2,2.4949484E1,1.2026449E2,7.684613E1,2.1130312E3,1.7658571E1,1.522454E2,1.9851633E4,2.9874924E1,5.6192114E3,2.8413052E1,1.124889E0,8.750631E0,1.0664172E0,1.8508655E3,2.4740324E0,8.8656226E2,3.9308293E4,9.234779E2,2.9831207E1,1.585762E2,2.5463543E0,1.1839289E2,1.0010874E0,1.19263405E2,1.9485548E1,5.7360584E1,3.66734E1,2.076358E3,1.9223219E1,1.3302219E2,1.123063E2,1.9739326E4,8.73524E0,2.1139685E1],"tree_param":{"num_deleted":"0","num_feature":"403159","num_nodes":"69","size_leaf_vector":"1"}},{"base_weights":[-2.8240844E-3,8.7316865E-1,-5.6003764E-2,1.0191116E0,4.7468427E-1,1.0875762E0,-9.377095E-2,-1.2671499E0,1.0229747E0,1.1410013E0,2.5730973E-1,-2.5299647E-1,1.089108E0,3.4056015E-2,-3.7782484E-1,1.0301005E0,-5.466597E-1,-6.9128945E-2,1.1512803E0,1.1527913E-1,1.4748422E0,-1.9368199E-1,1.0907149E0,1.08819894E-1,-6.1765826E-1,-3.8246086E-1,2.4893072E0,1.0345688E0,-9.5181125E-1,1.4307606E-1,1.1590354E0,1.7747862E0,2.939207E-3,-3.587699E-1,1.539412E0,-1.9862014E-1,1.0922645E0,1.2499393E-1,-2.8817022E0,5.0233537E-1,-7.7756053E-1,6.530786E0,-3.8774076E-1,3.1236047E-1,-3.208973E-1,1.7671265E-1,-1.1098937E-1,3.5080796E-1,1.15942575E-1,2.1693622E-1,5.42508E-1,4.659172E-1,-3.5235103E-2,3.0567884E-1,5.247863E-1,-1.7697135E-1,3.2805693E-1,4.1608494E-2,-1.0293866E0,-1.0849952E0,-3.5824388E-1,-5.751109E-1,2.0094328E-1,5.554124E-1,-2.5215697E-1,3.2768828E-1,2.1580975E0,3.4221783E-1,-1.23419985E-1],"categories":[],"categories_nodes":[],"categories_segments":[],"categories_sizes":[],"default_left":[0,1,0,0,0,0,1,0,1,0,1,0,0,1,1,1,0,0,0,0,0,0,0,1,0,0,0,1,0,0,1,0,0,0,0,0,0,1,1,0,0,0,0,0,0,0,0,0,0,0,0,0,0,0,0,0,0,0,0,0,0,0,0,0,0,0,0,0,0],"id":8,"left_children":[1,3,5,7,9,11,13,-1,15,17,19,-1,21,23,25,27,-1,-1,29,31,33,-1,35,37,39,41,-1,43,-1,45,47,49,51,-1,53,-1,55,57,59,61,63,65,67,-1,-1,-1,-1,-1,-1,-1,-1,-1,-1,-1,-1,-1,-1,-1,-1,-1,-1,-1,-1,-1,-1,-1,-1,-1,-1],"loss_changes":[3.12066E3,2.224851E2,2.727731E3,6.1140137E1,1.488391E2,6.890381E0,2.219859E3,0E0,5.8727295E1,3.8315125E0,1.3430685E2,0E0,6.3293457E0,2.054478E3,7.662937E2,5.582202E1,0E0,0E0,1.7987976E0,1.3002835E2,1.583606E1,0E0,6.199951E0,1.8299254E3,7.775187E2,6.9476196E2,0E0,4.0129395E1,0E0,9.177874E-1,1.5357971E0,2.5372314E-1,1.2228195E2,0E0,6.921158E0,0E0,4.911133E0,1.8336384E3,2.4809619E2,2.2119295E2,6.301516E2,4.451947E1,6.857805E2,0E0,0E0,0E0,0E0,0E0,0E0,0E0,0E0,0E0,0E0,0E0,0E0,0E0,0E0,0E0,0E0,0E0,0E0,0E0,0E0,0E0,0E0,0E0,0E0,0E0,0E0],"parents":[2147483647,0,0,1,1,2,2,3,3,4,4,5,5,6,6,8,8,9,9,10,10,12,12,13,13,14,14,15,15,18,18,19,19,20,20,22,22,23,23,24,24,25,25,27,27,29,29,30,30,31,31,32,32,34,34,36,36,37,37,38,38,39,39,40,40,41,41,42,42],"right_children":[2,4,6,8,10,12,14,-1,16,18,20,-1,22,24,26,28,-1,-1,30,32,34,-1,36,38,40,42,-1,44,-1,46,48,50,52,-1,54,-1,56,58,60,62,64,66,68,-1,-1,-1,-1,-1,-1,-1,-1,-1,-1,-1,-1,-1,-1,-1,-1,-1,-1,-1,-1,-1,-1,-1,-1,-1,-1],"split_conditions":[9.1131806E-1,3.0985596E-2,9.533656E-1,6.654259E-1,6.087778E-1,1.8031808E0,5.2742664E-2,-1.2671499E0,2.0329319E-1,3.0488354E-1,2.2200869E-1,-2.5299647E-1,1.7747591E-1,8.908965E-2,3.372333E-1,1.3522016E-1,-5.466597E-1,-6.9128945E-2,3.481039E-1,4.9426493E-1,2.1231622E-1,-1.9368199E-1,3.675025E-1,6.1310172E-2,9.422825E-1,6.765617E-1,2.4893072E0,1.8033203E-1,-9.5181125E-1,3.4438598E-1,2.1867506E-1,2.3572734E-1,7.5711787E-1,-3.587699E-1,1.9908068E-1,-1.9862014E-1,5.234048E-1,1.8581027E-1,3.3188492E-2,3.901946E-1,4.4752732E-2,1.8083726E-1,5.5550677E-1,3.1236047E-1,-3.208973E-1,1.7671265E-1,-1.1098937E-1,3.5080796E-1,1.15942575E-1,2.1693622E-1,5.42508E-1,4.659172E-1,-3.5235103E-2,3.0567884E-1,5.247863E-1,-1.7697135E-1,3.2805693E-1,4.1608494E-2,-1.0293866E0,-1.0849952E0,-3.5824388E-1,-5.751109E-1,2.0094328E-1,5.554124E-1,-2.5215697E-1,3.2768828E-1,2.1580975E0,3.4221783E-1,-1.23419985E-1],"split_indices":[353851,396305,395126,223357,245838,266999,396305,0,117782,93529,377320,0,27777,207562,336105,27552,0,0,294576,272538,28100,0,387134,92285,213328,89061,0,391805,0,156268,301921,395126,334369,0,301921,0,332086,93438,396305,378555,396305,301921,212218,0,0,0,0,0,0,0,0,0,0,0,0,0,0,0,0,0,0,0,0,0,0,0,0,0,0],"split_type":[0,0,0,0,0,0,0,0,0,0,0,0,0,0,0,0,0,0,0,0,0,0,0,0,0,0,0,0,0,0,0,0,0,0,0,0,0,0,0,0,0,0,0,0,0,0,0,0,0,0,0,0,0,0,0,0,0,0,0,0,0,0,0,0,0,0,0,0,0],"sum_hessian":[6.6986445E4,3.8329785E3,6.315347E4,2.8043438E3,1.0286348E3,2.0181022E3,6.1135367E4,1.2604645E0,2.8030833E3,2.5198312E2,7.766516E2,1.1640893E0,2.0169381E3,4.216265E4,1.8972717E4,2.7967168E3,6.3665E0,1.7152443E0,2.5026788E2,6.964968E2,8.015479E1,1.4958409E0,2.0154423E3,3.782432E4,4.3383276E3,1.896354E4,9.177814E0,2.7944995E3,2.2171972E0,2.0588574E0,2.4820903E2,4.322154E1,6.532753E2,1.4785328E0,7.867626E1,1.4036765E0,2.0140386E3,3.7621805E4,2.0251671E2,5.417363E2,3.7965916E3,1.3528913E1,1.895001E4,2.7862224E3,8.277235E0,1.0221785E0,1.036679E0,2.4442892E2,3.7800996E0,2.034392E0,4.1187145E1,4.622238E1,6.070529E2,2.4290869E1,5.438539E1,1.1560612E0,2.0128826E3,3.7478375E4,1.4342934E2,1.402801E2,6.2236595E1,3.4396317E1,5.0734E2,8.813674E1,3.7084548E3,1.757494E0,1.1771419E1,2.8813663E2,1.8661873E4],"tree_param":{"num_deleted":"0","num_feature":"403159","num_nodes":"69","size_leaf_vector":"1"}},{"base_weights":[2.2925877E-4,6.0751456E-1,-5.71774E-2,7.982633E-1,2.744514E-1,-1.6117511E0,-3.65966E-2,8.0246407E-1,-2.0366166E0,3.1498173E-1,-1.1757232E0,-1.101547E0,-2.2444963E0,2.311483E-2,-5.3191084E-1,9.789206E-1,6.167812E-1,3.4760773E-1,-1.4629558E0,7.94848E-1,-1.5720938E0,-1.1062909E0,1.17692776E-1,-3.5803103E-1,-2.3002825E0,3.44811E-2,-2.6706276E0,-5.4671043E-1,3.8869865E0,9.882681E-1,-4.8857078E-1,6.3701415E-1,-2.349151E0,-4.5193282E-1,3.7539354E-1,-1.6167707E0,-7.9423034E-1,3.1326538E-1,9.9226385E-1,-1.2269492E-1,-4.7811636E-1,3.3196278E-2,-1.1098479E0,-2.3886974E0,-1.8067964E0,5.301572E-2,-1.5732256E0,-1.093563E0,-3.2426765E0,7.175226E-1,-5.66526E-1,6.798708E-1,2.6711404E0,2.9779524E-1,-7.718197E-1,-1.3348571E0,1.937582E-1,-1.091258E0,1.8599303E-1,-4.8523137E-1,1.1862421E-1,-1.1846174E-1,-4.9575493E-1,1.8935166E-2,-2.8829408E-1,2.7004364E-1,-2.1690749E-1,3.8034979E-1,1.2220355E-1,-6.689342E-2,-3.3346397E-1,-4.017489E-1,-7.250223E-1,-2.944192E-1,-5.639469E-1,2.104396E-2,-4.9073324E-1,-6.321393E-1,-3.4935322E-1,2.4677455E-1,-3.47099E-1,-4.778237E-1,-1.1722499E0,4.3370384E-1,-1.775512E-1],"categories":[],"categories_nodes":[],"categories_segments":[],"categories_sizes":[],"default_left":[0,1,0,1,1,0,1,0,0,1,1,1,0,1,1,1,1,0,0,0,0,0,0,0,1,1,0,0,0,1,0,0,0,0,0,0,0,0,0,0,0,0,0,0,0,1,1,0,0,0,0,0,0,0,0,0,0,0,0,0,0,0,0,0,0,0,0,0,0,0,0,0,0,0,0,0,0,0,0,0,0,0,0,0,0],"id":9,"left_children":[1,3,5,7,9,11,13,15,-1,17,19,21,23,25,27,29,31,33,35,37,39,41,-1,-1,43,45,47,49,51,53,-1,55,57,-1,59,61,63,65,67,-1,-1,-1,69,71,73,75,77,79,81,-1,83,-1,-1,-1,-1,-1,-1,-1,-1,-1,-1,-1,-1,-1,-1,-1,-1,-1,-1,-1,-1,-1,-1,-1,-1,-1,-1,-1,-1,-1,-1,-1,-1,-1,-1],"loss_changes":[2.220867E3,3.493213E2,1.8620857E3,1.16926025E2,1.1821942E2,2.4302026E2,1.6989368E3,1.1396753E2,0E0,1.1369919E2,4.3994843E1,3.4313965E0,1.710205E1,1.56968E3,4.062782E2,4.5267944E1,1.0390527E2,9.9320816E1,2.352478E0,6.2359047E-1,5.027313E-1,1.9489136E0,0E0,0E0,9.661743E0,1.521268E3,1.9078992E2,3.6004382E2,1.485545E2,3.0418823E1,0E0,7.9180115E1,4.730288E1,0E0,7.6024506E1,5.607376E-1,1.2868266E0,3.277554E0,5.3281736E-1,0E0,0E0,0E0,3.859253E-1,4.668335E0,1.3365173E0,1.4601921E3,1.24515625E2,8.104477E0,1.6661145E2,0E0,3.12542E2,0E0,0E0,0E0,0E0,0E0,0E0,0E0,0E0,0E0,0E0,0E0,0E0,0E0,0E0,0E0,0E0,0E0,0E0,0E0,0E0,0E0,0E0,0E0,0E0,0E0,0E0,0E0,0E0,0E0,0E0,0E0,0E0,0E0,0E0],"parents":[2147483647,0,0,1,1,2,2,3,3,4,4,5,5,6,6,7,7,9,9,10,10,11,11,12,12,13,13,14,14,15,15,16,16,17,17,18,18,19,19,20,20,21,21,24,24,25,25,26,26,27,27,28,28,29,29,31,31,32,32,34,34,35,35,36,36,37,37,38,38,42,42,43,43,44,44,45,45,46,46,47,47,48,48,50,50],"right_children":[2,4,6,8,10,12,14,16,-1,18,20,22,24,26,28,30,32,34,36,38,40,42,-1,-1,44,46,48,50,52,54,-1,56,58,-1,60,62,64,66,68,-1,-1,-1,70,72,74,76,78,80,82,-1,84,-1,-1,-1,-1,-1,-1,-1,-1,-1,-1,-1,-1,-1,-1,-1,-1,-1,-1,-1,-1,-1,-1,-1,-1,-1,-1,-1,-1,-1,-1,-1,-1,-1,-1],"split_conditions":[1.926533E-1,3.4944464E-2,1.9173534E0,2.882081E-1,1.1814785E-1,1E0,8.804091E-2,1.3335358E-1,-2.0366166E0,1.1801293E-1,1.6681932E-1,2.9421988E-1,2.8235897E-1,1.2399315E-1,4.177762E-1,1.0258834E-1,1.2244653E-1,3.2578307E-1,2.430557E-1,1.3801813E-1,1.3637248E-1,1.7882413E-1,1.17692776E-1,-3.5803103E-1,8.39834E-2,9.5904924E-2,8.804091E-2,6.137696E-1,2.7070057E-1,1.20773695E-1,-4.8857078E-1,3.4962353E-1,2.1397017E-1,-4.5193282E-1,4.1389453E-1,1.5583056E-1,2.3078078E-1,1.1290368E-1,7.638273E-2,-1.2269492E-1,-4.7811636E-1,3.3196278E-2,1.511095E-1,3.0102974E-1,3.335619E-1,1.7905545E-1,3.4944464E-2,5.249028E-1,4.9701127E-1,7.175226E-1,5.1649135E-1,6.798708E-1,2.6711404E0,2.9779524E-1,-7.718197E-1,-1.3348571E0,1.937582E-1,-1.091258E0,1.8599303E-1,-4.8523137E-1,1.1862421E-1,-1.1846174E-1,-4.9575493E-1,1.8935166E-2,-2.8829408E-1,2.7004364E-1,-2.1690749E-1,3.8034979E-1,1.2220355E-1,-6.689342E-2,-3.3346397E-1,-4.017489E-1,-7.250223E-1,-2.944192E-1,-5.639469E-1,2.104396E-2,-4.9073324E-1,-6.321393E-1,-3.4935322E-1,2.4677455E-1,-3.47099E-1,-4.778237E-1,-1.1722499E0,4.3370384E-1,-1.775512E-1],"split_indices":[301921,396305,299362,173354,207562,396305,396305,301921,0,278270,213328,277469,166911,268515,84422,28100,207562,266631,278270,207562,301921,173045,0,0,207562,287055,396305,193077,213328,27552,0,90532,213328,0,364799,353851,213328,301921,396305,0,0,0,207553,93438,154363,93529,396305,28665,398812,0,226751,0,0,0,0,0,0,0,0,0,0,0,0,0,0,0,0,0,0,0,0,0,0,0,0,0,0,0,0,0,0,0,0,0,0],"split_type":[0,0,0,0,0,0,0,0,0,0,0,0,0,0,0,0,0,0,0,0,0,0,0,0,0,0,0,0,0,0,0,0,0,0,0,0,0,0,0,0,0,0,0,0,0,0,0,0,0,0,0,0,0,0,0,0,0,0,0,0,0,0,0,0,0,0,0,0,0,0,0,0,0,0,0,0,0,0,0,0,0,0,0,0,0],"sum_hessian":[6.370212E4,5.5008574E3,5.820126E4,3.4968042E3,2.0040535E3,7.5944135E2,5.744182E4,3.495763E3,1.0412893E0,1.9503274E3,5.3726078E1,4.2194977E2,3.3749155E2,5.12629E4,6.178923E3,1.7902223E3,1.7055405E3,1.9159728E3,3.435453E1,8.828677E0,4.48974E1,4.2087268E2,1.0770944E0,1.813856E1,3.19353E2,5.1048484E4,2.1441231E2,6.1591714E3,1.9751749E1,1.7844463E3,5.776023E0,1.6947644E3,1.0776092E1,2.750409E1,1.8884688E3,2.6777657E1,7.5768733E0,3.3190088E0,5.5096684E0,1.1830602E0,4.371434E1,1.1387877E0,4.197339E2,2.6757306E2,5.1779922E1,5.0467633E4,5.8085455E2,5.7847076E1,1.5656523E2,4.0454575E1,6.118717E3,1.6026043E1,3.725705E0,1.7829731E3,1.4731407E0,2.070915E0,1.6926935E3,7.358114E0,3.4179783E0,1.7989714E1,1.870479E3,1.103495E0,2.5674162E1,1.3349079E0,6.241966E0,2.2028506E0,1.1161582E0,2.9515762E0,2.558092E0,1.0552706E0,4.1867862E2,8.232248E0,2.5934082E2,5.3824515E0,4.6397472E1,4.9961785E4,5.0584482E2,2.5005348E2,3.308011E2,1.4701638E0,5.637691E1,4.5942562E1,1.1062268E2,7.5313416E1,6.0434033E3],"tree_param":{"num_deleted":"0","num_feature":"403159","num_nodes":"85","size_leaf_vector":"1"}},{"base_weights":[-1.789522E-4,1.0538021E0,-2.9564675E-2,-1.7343707E-1,1.0552145E0,7.450331E-1,-6.694834E-2,-8.830149E-2,1.0565867E0,9.377381E-1,3.444265E-1,1.1014192E0,-9.1156274E-2,-8.521807E-2,1.058275E0,-8.11411E-1,9.528477E-1,1.0720681E0,1.6495065E-1,1.1234707E0,-7.663437E-1,1.30696E0,-1.0888892E-1,1.0590925E0,3.947692E-2,4.4452497E-1,-1.0756174E0,9.6234244E-1,-1.223646E0,7.902777E-4,1.0838218E0,4.073944E-2,1.5271167E0,-3.6011901E-1,1.1455894E0,1.2387483E0,2.3949594E0,1.2807486E0,-1.2714452E-1,3.179056E-1,1.3717371E-2,2.5976443E-1,-3.9524546E-1,2.9044473E-1,-6.4265954E-1,2.2055538E-1,-6.3730067E-1,3.282683E-1,2.7368974E-2,4.390251E-1,-2.560759E-2,-3.3118376E-1,4.8626313E-1,-7.283745E-1,3.4710968E-1,3.738821E-1,-5.1563483E-1,1.0198762E0,6.528427E-1,3.8196185E-1,5.5710214E-1,-2.7960919E-2,-2.504397E-1],"categories":[],"categories_nodes":[],"categories_segments":[],"categories_sizes":[],"default_left":[0,0,0,0,0,1,0,0,0,0,0,1,0,0,1,0,1,0,1,0,0,1,0,1,0,0,0,1,0,0,1,0,0,0,0,1,0,1,1,0,0,0,0,0,0,0,0,0,0,0,0,0,0,0,0,0,0,0,0,0,0,0,0],"id":10,"left_children":[1,3,5,-1,7,9,11,-1,13,15,17,19,21,-1,23,25,27,29,31,33,-1,35,37,39,-1,-1,41,43,45,-1,47,49,51,-1,53,55,57,59,61,-1,-1,-1,-1,-1,-1,-1,-1,-1,-1,-1,-1,-1,-1,-1,-1,-1,-1,-1,-1,-1,-1,-1,-1],"loss_changes":[1.9145773E3,4.4747314E0,1.741532E3,0E0,3.4140625E0,2.1343433E2,1.6227891E3,0E0,4.089966E0,5.0169067E1,1.17476974E2,9.67616E1,1.3936698E3,0E0,1.1273193E0,1.1618965E1,3.9479614E1,2.235382E0,1.22409836E2,6.0916626E1,0E0,4.928369E1,1.408252E3,9.5532227E-1,0E0,0E0,8.380251E0,3.5350952E1,1.6541718E1,0E0,1.7193604E0,1.1931337E2,1.670465E1,0E0,4.9750854E1,1.6933167E1,1.4973297E0,7.642822E-1,1.3158232E3,0E0,0E0,0E0,0E0,0E0,0E0,0E0,0E0,0E0,0E0,0E0,0E0,0E0,0E0,0E0,0E0,0E0,0E0,0E0,0E0,0E0,0E0,0E0,0E0],"parents":[2147483647,0,0,1,1,2,2,4,4,5,5,6,6,8,8,9,9,10,10,11,11,12,12,14,14,15,15,16,16,17,17,18,18,19,19,21,21,22,22,23,23,26,26,27,27,28,28,30,30,31,31,32,32,34,34,35,35,36,36,37,37,38,38],"right_children":[2,4,6,-1,8,10,12,-1,14,16,18,20,22,-1,24,26,28,30,32,34,-1,36,38,40,-1,-1,42,44,46,-1,48,50,52,-1,54,56,58,60,62,-1,-1,-1,-1,-1,-1,-1,-1,-1,-1,-1,-1,-1,-1,-1,-1,-1,-1,-1,-1,-1,-1,-1,-1],"split_conditions":[3.309724E-1,3.675025E-1,9.1131806E-1,-1.7343707E-1,1.8911248E-1,2.847288E-2,5.6832147E-1,-8.830149E-2,1.7747591E-1,2.3379172E-1,6.087778E-1,2.0726879E-1,1.2320472E0,-8.521807E-2,2.3934951E-1,1.9369994E-1,1.380925E-1,3.0488354E-1,1.604936E-1,1.3780417E0,-7.663437E-1,3.4944464E-2,1.038235E0,2.6174518E-1,3.947692E-2,4.4452497E-1,4.8177946E-1,2.332567E-1,2.1719435E-1,7.902777E-4,2.661241E-1,5.470342E-1,7.187611E-1,-3.6011901E-1,1.163867E0,2.7960178E-1,4.4752732E-2,1.5542676E-1,1.2098153E-1,3.179056E-1,1.3717371E-2,2.5976443E-1,-3.9524546E-1,2.9044473E-1,-6.4265954E-1,2.2055538E-1,-6.3730067E-1,3.282683E-1,2.7368974E-2,4.390251E-1,-2.560759E-2,-3.3118376E-1,4.8626313E-1,-7.283745E-1,3.4710968E-1,3.738821E-1,-5.1563483E-1,1.0198762E0,6.528427E-1,3.8196185E-1,5.5710214E-1,-2.7960919E-2,-2.504397E-1],"split_indices":[395126,387134,353851,0,28100,396305,212218,0,27777,28100,245838,138785,171217,0,207553,245838,278270,93529,79008,301787,0,396305,226751,295462,0,0,96677,102174,301921,0,294576,381488,129295,0,262847,373955,396305,398812,207553,0,0,0,0,0,0,0,0,0,0,0,0,0,0,0,0,0,0,0,0,0,0,0,0],"split_type":[0,0,0,0,0,0,0,0,0,0,0,0,0,0,0,0,0,0,0,0,0,0,0,0,0,0,0,0,0,0,0,0,0,0,0,0,0,0,0,0,0,0,0,0,0,0,0,0,0,0,0,0,0,0,0,0,0,0,0,0,0,0,0],"sum_hessian":[6.181439E4,1.6757354E3,6.0138656E4,1.0959042E0,1.6746394E3,2.7679155E3,5.7370742E4,1.4841422E0,1.6731553E3,1.8680032E3,8.9991223E2,1.1636577E3,5.6207082E4,1.8940517E0,1.6712612E3,1.5546792E1,1.8524564E3,1.7706628E2,7.2284595E2,1.1573695E3,6.2882347E0,7.030489E2,5.5504035E4,1.6696455E3,1.615794E0,1.1300756E0,1.4416717E1,1.8449658E3,7.490593E0,1.938193E0,1.751281E2,6.6338416E2,5.94618E1,1.0409807E1,1.1469597E3,6.6358435E2,3.9464558E1,7.188026E2,5.478523E4,1.6686237E3,1.0218112E0,1.3112416E0,1.3105475E1,1.8422084E3,2.7574553E0,2.4172602E0,5.073333E0,1.7320985E2,1.9182392E0,5.314788E1,6.1023627E2,1.6753287E0,5.778647E1,2.9869661E0,1.1439727E3,6.624773E2,1.1070241E0,4.45852E0,3.500604E1,7.126838E2,6.1187873E0,5.2278895E4,2.5063381E3],"tree_param":{"num_deleted":"0","num_feature":"403159","num_nodes":"63","size_leaf_vector":"1"}},{"base_weights":[3.601887E-3,6.5771025E-1,-3.224063E-2,6.9883454E-1,-3.579901E0,-1.8561289E-2,-1.7201014E0,-1.3277979E0,7.1380913E-1,-3.0328986E-1,-3.7891695E0,3.699589E-2,-4.398048E-1,-2.080907E0,-1.0960168E0,1.2852104E0,5.9619737E-1,-4.8188272E-1,-1.1986614E0,8.588332E-2,-5.38339E-1,1.3155241E0,-4.8872608E-1,-3.4695702E0,-4.8627618E-1,-3.3393788E-1,2.711386E-1,1.1250614E0,1.9885874E0,1.1323485E0,4.4626954E-1,-1.1326894E0,1.12747744E-1,6.189946E-1,-5.6590134E-1,3.1946367E-1,4.3355876E-1,2.5990024E0,-5.12971E-1,-3.429812E-1,-3.6276999E0,3.4085009E-1,-4.9137384E-1,8.825722E-1,4.8986655E-1,-5.461965E-1,3.4359294E-1,-6.425822E-1,1.4152685E-1,-3.6649203E-1,-3.1765294E-1,4.6268415E-2,-1.826642E-1,2.8588023E0,-1.7171466E-1,4.085837E-1,1.9526833E0,1.5799329E-1,-1.6922188E-1,-1.1586248E0,-5.465878E-1],"categories":[],"categories_nodes":[],"categories_segments":[],"categories_sizes":[],"default_left":[0,1,1,0,0,1,1,0,0,0,0,1,0,1,1,1,0,0,0,0,0,0,0,0,0,0,0,1,0,0,0,1,1,0,0,0,0,1,0,0,1,0,0,0,0,0,0,0,0,0,0,0,0,0,0,0,0,0,0,0,0],"id":11,"left_children":[1,3,5,7,9,11,13,-1,15,-1,17,19,21,23,25,27,29,-1,-1,31,33,35,37,39,-1,-1,-1,41,43,45,47,49,51,-1,53,-1,-1,55,57,-1,59,-1,-1,-1,-1,-1,-1,-1,-1,-1,-1,-1,-1,-1,-1,-1,-1,-1,-1,-1,-1],"loss_changes":[1.417194E3,5.497456E2,1.3231365E3,2.4189526E2,1.2482697E1,1.3304368E3,1.01458496E2,0E0,2.07745E2,0E0,6.0582886E0,1.4127064E3,5.694702E2,1.8014148E2,6.8531647E0,5.7323853E1,2.0647784E2,0E0,0E0,1.5155662E3,2.8323816E2,4.307373E0,4.8383008E2,2.2149048E1,0E0,0E0,0E0,1.5146851E1,2.8006592E1,2.3597351E1,1.3385583E2,5.2662354E0,1.3559177E3,0E0,2.601693E2,0E0,0E0,2.3480566E2,3.4008228E2,0E0,2.1098145E1,0E0,0E0,0E0,0E0,0E0,0E0,0E0,0E0,0E0,0E0,0E0,0E0,0E0,0E0,0E0,0E0,0E0,0E0,0E0,0E0],"parents":[2147483647,0,0,1,1,2,2,3,3,4,4,5,5,6,6,8,8,10,10,11,11,12,12,13,13,14,14,15,15,16,16,19,19,20,20,21,21,22,22,23,23,27,27,28,28,29,29,30,30,31,31,32,32,34,34,37,37,38,38,40,40],"right_children":[2,4,6,8,10,12,14,-1,16,-1,18,20,22,24,26,28,30,-1,-1,32,34,36,38,40,-1,-1,-1,42,44,46,48,50,52,-1,54,-1,-1,56,58,-1,60,-1,-1,-1,-1,-1,-1,-1,-1,-1,-1,-1,-1,-1,-1,-1,-1,-1,-1,-1,-1],"split_conditions":[2.7276167E-1,2.151792E-1,7.311595E-2,5.999039E-1,2.1465985E-1,8.196591E-2,3.6315985E-2,-1.3277979E0,6.792142E-1,-3.0328986E-1,2.2591245E-1,9.468165E-2,4.2371294E-1,1.5542676E-1,2.0222448E-1,3.4944464E-2,1.126344E-1,-4.8188272E-1,-1.1986614E0,1.1426482E0,1.9663664E0,2.5468978E-1,1.1277752E0,2.2507001E-1,-4.8627618E-1,-3.3393788E-1,2.711386E-1,2.8650513E-1,5.5197965E-2,1.4758779E-1,6.152156E-1,1.0901404E-1,1.1331272E-1,6.189946E-1,6.317639E-1,3.1946367E-1,4.3355876E-1,3.857526E-2,4.5565403E-1,-3.429812E-1,9.8600276E-2,3.4085009E-1,-4.9137384E-1,8.825722E-1,4.8986655E-1,-5.461965E-1,3.4359294E-1,-6.425822E-1,1.4152685E-1,-3.6649203E-1,-3.1765294E-1,4.6268415E-2,-1.826642E-1,2.8588023E0,-1.7171466E-1,4.085837E-1,1.9526833E0,1.5799329E-1,-1.6922188E-1,-1.1586248E0,-5.465878E-1],"split_indices":[213328,135171,271313,309120,28100,207562,396305,0,207553,0,27777,396305,620,398812,301921,396305,213328,0,0,391805,114100,353851,311769,28100,0,0,0,241654,396305,87410,367456,166911,207553,0,179236,0,0,396305,353851,0,359924,0,0,0,0,0,0,0,0,0,0,0,0,0,0,0,0,0,0,0,0],"split_type":[0,0,0,0,0,0,0,0,0,0,0,0,0,0,0,0,0,0,0,0,0,0,0,0,0,0,0,0,0,0,0,0,0,0,0,0,0,0,0,0,0,0,0,0,0,0,0,0,0,0,0,0,0,0,0,0,0,0,0,0,0],"sum_hessian":[6.044598E4,3.1392295E3,5.730675E4,3.1098843E3,2.9345076E1,5.6847043E4,4.597083E2,8.202304E0,3.1016821E3,2.649641E0,2.6695436E1,5.022399E4,6.623055E3,2.898191E2,1.698892E2,5.277502E2,2.573932E3,3.064434E0,2.3631002E1,4.6291363E4,3.9326243E3,1.7887865E2,6.444177E3,7.048568E1,2.193334E2,1.6888766E2,1.0015485E0,4.319914E2,9.575876E1,5.6104553E2,2.0128864E3,9.976296E2,4.5293734E4,4.045172E1,3.8921726E3,6.413084E1,1.1474781E2,4.937824E1,6.3947983E3,5.0101213E0,6.547556E1,4.3084845E2,1.1429542E0,2.4044796E1,7.171396E1,1.8422924E0,5.5920325E2,1.8818237E1,1.9940681E3,4.4548367E2,5.5214594E2,4.2832445E4,2.4612886E3,1.5543734E0,3.8906182E3,3.8534676E1,1.0843562E1,2.9917093E2,6.0956274E3,5.6945366E1,8.530196E0],"tree_param":{"num_deleted":"0","num_feature":"403159","num_nodes":"61","size_leaf_vector":"1"}},{"base_weights":[1.7323998E-3,2.0857247E-2,-1.2035372E0,-4.564112E0,2.5762217E-2,-1.2148254E0,6.6247773E-1,-8.2860166E-1,-4.9462914E0,-2.140843E0,3.600652E-2,-1.2192209E0,4.0722197E-1,-4.903328E-1,-1.513647E0,-4.667399E-1,-2.2160742E0,-1.3543801E0,5.1746804E-2,-1.2238083E0,3.6768392E-1,-2.2252016E0,-3.0396506E-1,-1.0751059E0,-1.6288792E0,6.4667955E-2,-1.6308788E0,2.4402839E-1,-1.2281187E0,-3.0611265E-1,-6.7014503E-1,-3.2436854E-1,1.2178848E-1,-9.365388E-1,-4.8333886E-1,2.1455199E-2,-9.300824E-1,-7.0568085E-1,-3.428141E-1,2.4240766E-1,-3.6943305E-1],"categories":[],"categories_nodes":[],"categories_segments":[],"categories_sizes":[],"default_left":[1,0,1,0,0,1,0,0,0,0,0,1,0,0,0,0,0,0,1,0,0,0,0,1,0,1,1,0,0,0,0,0,0,0,0,0,0,0,0,0,0],"id":12,"left_children":[1,3,5,7,9,11,-1,-1,13,15,17,19,-1,-1,-1,-1,21,23,25,27,-1,29,-1,31,33,35,37,-1,39,-1,-1,-1,-1,-1,-1,-1,-1,-1,-1,-1,-1],"loss_changes":[1.3530645E3,1.2996024E3,3.7994385E1,2.8870972E1,1.2812383E3,1.1994507E1,0E0,0E0,8.076538E0,8.509033E0,1.2573978E3,1.1744873E1,0E0,0E0,0E0,0E0,3.6206055E-1,4.75531E1,1.2352207E3,9.009644E0,0E0,1.6723633E-1,0E0,3.3564453E0,3.513855E0,1.2223596E3,1.497826E2,0E0,7.1605225E0,0E0,0E0,0E0,0E0,0E0,0E0,0E0,0E0,0E0,0E0,0E0,0E0],"parents":[2147483647,0,0,1,1,2,2,3,3,4,4,5,5,8,8,9,9,10,10,11,11,16,16,17,17,18,18,19,19,21,21,23,23,24,24,25,25,26,26,28,28],"right_children":[2,4,6,8,10,12,-1,-1,14,16,18,20,-1,-1,-1,-1,22,24,26,28,-1,30,-1,32,34,36,38,-1,40,-1,-1,-1,-1,-1,-1,-1,-1,-1,-1,-1,-1],"split_conditions":[8.836939E-2,1.24545E0,2.460899E-1,1.0362178E0,1.6397806E0,2.7953246E-1,6.6247773E-1,-8.2860166E-1,3.131343E-1,3.3297208E-1,1.9173534E0,1.9588828E-1,4.0722197E-1,-4.903328E-1,-1.513647E0,-4.667399E-1,9.741603E-1,1E0,9.361593E-2,4.7955185E-1,3.6768392E-1,2.7344865E-1,-3.0396506E-1,2.9660785E-1,2.1189517E-1,1.5249822E-1,3.6315985E-2,2.4402839E-1,3.678559E-1,-3.0611265E-1,-6.7014503E-1,-3.2436854E-1,1.2178848E-1,-9.365388E-1,-4.8333886E-1,2.1455199E-2,-9.300824E-1,-7.0568085E-1,-3.428141E-1,2.4240766E-1,-3.6943305E-1],"split_indices":[28100,373020,377537,287055,169374,5676,0,0,359924,278270,299362,79008,0,0,0,0,191935,396305,87410,45424,0,27777,0,277469,301921,153603,396305,0,377561,0,0,0,0,0,0,0,0,0,0,0,0],"split_type":[0,0,0,0,0,0,0,0,0,0,0,0,0,0,0,0,0,0,0,0,0,0,0,0,0,0,0,0,0,0,0,0,0,0,0,0,0,0,0,0,0],"sum_hessian":[5.8697664E4,5.778178E4,9.1588086E2,6.0755196E1,5.7721027E4,9.135024E2,2.3784604E0,1.2069651E1,4.8685543E1,2.7065775E2,5.7450367E4,9.124692E2,1.0332451E0,1.9240936E0,4.676145E1,3.3308895E1,2.3734886E2,6.4215137E2,5.680822E4,9.112587E2,1.2104175E0,2.3471788E2,2.6309793E0,3.2074408E2,3.214073E2,5.6376258E4,4.3196072E2,1.5276296E0,9.0973114E2,2.5143776E0,2.322035E2,3.196925E2,1.0515882E0,1.7216423E0,3.1968564E2,5.625549E4,1.20767166E2,1.7279408E2,2.5916663E2,1.0884944E0,9.0864264E2],"tree_param":{"num_deleted":"0","num_feature":"403159","num_nodes":"41","size_leaf_vector":"1"}},{"base_weights":[4.4195773E-4,1.0216447E0,-2.124035E-2,1.0254176E0,7.6271005E-2,1.1208903E0,-4.008183E-2,1.0277157E0,-9.209558E-2,-1.3370542E-1,1.836921E-1,1.1344274E0,-9.8744553E-1,-4.857805E0,-3.6027674E-2,1.0297515E0,8.043333E-3,2.1357481E-1,-2.8027144E-1,1.1538452E0,-4.6625015E-1,-1.533639E0,-2.4613732E-1,-1.8410125E0,-2.5200639E-2,1.0305688E0,7.980828E-3,2.5772992E-1,-2.6268068E-1,-5.740346E-1,1.163348E0,-3.047233E0,-1.1769295E0,-8.807907E-3,-1.2113556E0,3.09413E-1,1.2369642E-2,-3.585709E-1,3.5093823E-1,-3.3876288E-1,-9.6172434E-1,-4.463252E-1,-3.4535956E-1,9.229435E-4,-5.0954E-1,1.682209E0,-3.7250912E-1],"categories":[],"categories_nodes":[],"categories_segments":[],"categories_sizes":[],"default_left":[0,1,0,1,0,1,0,1,0,0,0,1,0,1,0,1,0,0,0,0,0,0,0,1,1,1,0,0,0,0,0,0,0,1,0,0,0,0,0,0,0,0,0,0,0,0,0],"id":13,"left_children":[1,3,5,7,9,11,13,15,17,-1,-1,19,-1,21,23,25,27,-1,-1,29,-1,-1,-1,31,33,35,-1,-1,-1,-1,37,39,41,43,45,-1,-1,-1,-1,-1,-1,-1,-1,-1,-1,-1,-1],"loss_changes":[1.2882905E3,4.23645E0,1.2260796E3,3.1888428E0,1.9205052E0,5.8965088E1,1.0945769E3,2.487671E0,2.9605863E0,0E0,0E0,4.9957397E1,0E0,4.4187744E1,1.0944114E3,9.5654297E-1,3.3119473E0,0E0,0E0,2.8940796E1,0E0,0E0,0E0,2.6389026E2,1.0824681E3,9.157715E-1,0E0,0E0,0E0,0E0,1.5299194E1,3.2235718E1,2.267456E-2,1.102685E3,1.6396729E2,0E0,0E0,0E0,0E0,0E0,0E0,0E0,0E0,0E0,0E0,0E0,0E0],"parents":[2147483647,0,0,1,1,2,2,3,3,4,4,5,5,6,6,7,7,8,8,11,11,13,13,14,14,15,15,16,16,19,19,23,23,24,24,25,25,30,30,31,31,32,32,33,33,34,34],"right_children":[2,4,6,8,10,12,14,16,18,-1,-1,20,-1,22,24,26,28,-1,-1,30,-1,-1,-1,32,34,36,-1,-1,-1,-1,38,40,42,44,46,-1,-1,-1,-1,-1,-1,-1,-1,-1,-1,-1,-1],"split_conditions":[9.533656E-1,1.04129426E-1,2.847288E-2,1.4793408E-1,1.0492349E-1,1.18855104E-1,9.8310786E-1,1.24383725E-1,1.5222478E-1,-1.3370542E-1,1.836921E-1,8.181091E-2,-9.8744553E-1,6.90989E-2,1.9367658E0,2.561893E-1,2.5973052E-1,2.1357481E-1,-2.8027144E-1,1.1759145E0,-4.6625015E-1,-1.533639E0,-2.4613732E-1,3.0985596E-2,1.0117094E-1,1.6798669E-1,7.980828E-3,2.5772992E-1,-2.6268068E-1,-5.740346E-1,1.2735079E-1,2.156962E-1,3.944116E-2,1.9046025E-1,4.2011034E-1,3.09413E-1,1.2369642E-2,-3.585709E-1,3.5093823E-1,-3.3876288E-1,-9.6172434E-1,-4.463252E-1,-3.4535956E-1,9.229435E-4,-5.0954E-1,1.682209E0,-3.7250912E-1],"split_indices":[395126,396305,396305,27777,396305,41354,391157,28100,207562,0,0,87410,0,396305,266631,288999,139334,0,0,66480,0,0,0,396305,278270,295462,0,0,0,0,181646,28100,396305,188501,316005,0,0,0,0,0,0,0,0,0,0,0,0],"split_type":[0,0,0,0,0,0,0,0,0,0,0,0,0,0,0,0,0,0,0,0,0,0,0,0,0,0,0,0,0,0,0,0,0,0,0,0,0,0,0,0,0,0,0,0,0,0,0],"sum_hessian":[5.818105E4,1.2086658E3,5.6972387E4,1.203777E3,4.8887978E0,9.236587E2,5.6048727E4,1.2013867E3,2.3902125E0,2.5623288E0,2.3264687E0,9.2157416E2,2.0845041E0,4.61192E1,5.6002605E4,1.198983E3,2.4037347E0,1.3018988E0,1.0883137E0,9.1553284E2,6.041366E0,4.3135735E1,2.9834664E0,3.3291553E2,5.566969E4,1.1979796E3,1.0034359E0,1.2385963E0,1.1651385E0,2.208838E0,9.13324E2,1.169331E2,2.1598244E2,5.4911816E4,7.5787714E2,1.1969597E3,1.0198262E0,1.9867003E0,9.113373E2,9.546333E0,1.07386765E2,1.2168711E1,2.0381372E2,5.4529277E4,3.8253897E2,2.5431488E0,7.55334E2],"tree_param":{"num_deleted":"0","num_feature":"403159","num_nodes":"47","size_leaf_vector":"1"}},{"base_weights":[1.4637116E-3,1.665852E-2,-1.277381E0,3.003696E-2,-1.4646544E0,-1.4823716E0,-1.1402392E0,4.890495E-2,-1.03868E0,-1.0076437E0,-1.7596481E0,3.172282E-1,-1.5083667E0,-5.1092446E-1,-1.108597E0,6.574019E-2,-1.1544152E0,-7.0688844E-1,-1.2526965E0,4.7100076E-1,-1.0469146E0,3.8293108E-1,-1.7906349E0,-1.5273366E0,3.3349955E-1,-1.1136627E0,1.2285248E-1,-1.1132812E0,8.341055E-2,-1.3681881E0,3.7187523E-1,6.339649E-1,-7.4962413E-1,-1.353159E0,-1.05565384E-1,1.6282882E-1,-1.058335E0,-1.8236898E0,2.2906442E-1,-1.5447979E0,2.93439E-1,-1.118883E0,1.1311959E-1,-5.5750304E-1,-3.2742345E-1,5.259609E-2,-4.4347234E-2,-2.888574E-1,-5.702602E-1,4.7851783E-1,-2.3971187E-1,4.7608492E-1,-4.0861905E-1,6.423396E-1,-8.0921076E-2,-3.204123E-1,-5.0124552E-2,2.5452092E-1,-5.5550873E-1,3.4246528E-1,-4.6809295E-1,1.1416062E-1,-3.3712485E-1],"categories":[],"categories_nodes":[],"categories_segments":[],"categories_sizes":[],"default_left":[1,1,1,1,0,0,0,1,0,0,0,0,1,0,1,0,1,0,0,0,0,0,0,1,0,1,0,0,1,0,0,0,0,0,0,0,0,0,0,0,0,0,0,0,0,0,0,0,0,0,0,0,0,0,0,0,0,0,0,0,0,0,0],"id":14,"left_children":[1,3,5,7,9,11,13,15,17,19,21,-1,23,-1,25,27,29,31,33,-1,35,-1,37,39,-1,41,-1,43,45,47,-1,-1,49,51,53,-1,55,57,-1,59,-1,61,-1,-1,-1,-1,-1,-1,-1,-1,-1,-1,-1,-1,-1,-1,-1,-1,-1,-1,-1,-1,-1],"loss_changes":[1.1175961E3,1.1264468E3,1.729541E1,1.1359313E3,6.681531E1,1.9247498E1,5.395508E0,1.1214532E3,6.851123E1,2.2082687E1,3.1247253E1,0E0,1.4872559E1,0E0,3.455719E0,1.1374373E3,3.9259308E2,4.8044617E1,6.817285E1,0E0,4.195999E0,0E0,2.7155945E1,1.3042664E1,0E0,3.4493713E0,0E0,1.1107666E1,1.1431311E3,1.4966858E2,0E0,0E0,4.5358963E1,1.6429138E1,1.8584253E1,0E0,1.5378418E0,2.4137207E1,0E0,1.2705139E1,0E0,3.2582703E0,0E0,0E0,0E0,0E0,0E0,0E0,0E0,0E0,0E0,0E0,0E0,0E0,0E0,0E0,0E0,0E0,0E0,0E0,0E0,0E0,0E0],"parents":[2147483647,0,0,1,1,2,2,3,3,4,4,5,5,6,6,7,7,8,8,9,9,10,10,12,12,14,14,15,15,16,16,17,17,18,18,20,20,22,22,23,23,25,25,27,27,28,28,29,29,32,32,33,33,34,34,36,36,37,37,39,39,41,41],"right_children":[2,4,6,8,10,12,14,16,18,20,22,-1,24,-1,26,28,30,32,34,-1,36,-1,38,40,-1,42,-1,44,46,48,-1,-1,50,52,54,-1,56,58,-1,60,-1,62,-1,-1,-1,-1,-1,-1,-1,-1,-1,-1,-1,-1,-1,-1,-1,-1,-1,-1,-1,-1,-1],"split_conditions":[9.028617E-2,1.6032605E-1,3.6315985E-2,1.6676274E-1,1E0,5.8239967E-1,1.6891858E-1,1.02645874E-1,3.5883284E-1,1.460308E-1,4.075817E-1,3.172282E-1,2.2667626E-1,-5.1092446E-1,1.8935376E-1,1.1426482E0,2.7052438E-1,4.3679422E-1,3.7189522E-1,4.7100076E-1,4.7876164E-2,3.8293108E-1,3.5561576E-1,2.3852907E-1,3.3349955E-1,2.5895825E-1,1.2285248E-1,2.3647797E-1,5.2742664E-2,1.4732683E-1,3.7187523E-1,6.339649E-1,1.2305429E0,1.859198E0,1.8486754E0,1.6282882E-1,1.06080845E-1,2.1444738E-1,2.2906442E-1,3.1099108E-1,2.93439E-1,2.232596E-1,1.1311959E-1,-5.5750304E-1,-3.2742345E-1,5.259609E-2,-4.4347234E-2,-2.888574E-1,-5.702602E-1,4.7851783E-1,-2.3971187E-1,4.7608492E-1,-4.0861905E-1,6.423396E-1,-8.0921076E-2,-3.204123E-1,-5.0124552E-2,2.5452092E-1,-5.5550873E-1,3.4246528E-1,-4.6809295E-1,1.1416062E-1,-3.3712485E-1],"split_indices":[359924,242875,396305,111062,396305,124650,301921,93529,111062,301921,204772,0,148946,0,204772,391805,337402,28832,111062,0,396305,0,242875,28694,0,288903,0,213328,396305,396305,0,0,378664,226818,305673,0,396305,301921,0,111062,0,20698,0,0,0,0,0,0,0,0,0,0,0,0,0,0,0,0,0,0,0,0,0],"split_type":[0,0,0,0,0,0,0,0,0,0,0,0,0,0,0,0,0,0,0,0,0,0,0,0,0,0,0,0,0,0,0,0,0,0,0,0,0,0,0,0,0,0,0,0,0,0,0,0,0,0,0,0,0,0,0,0,0,0,0,0,0,0,0],"sum_hessian":[5.751168E4,5.6837344E4,6.743356E2,5.6329582E4,5.077594E2,2.663714E2,4.0796414E2,5.5353285E4,9.762974E2,2.0091429E2,3.0684512E2,2.2967222E0,2.6407468E2,1.8902872E1,3.8906128E2,5.4590477E4,7.628111E2,3.845028E2,5.917946E2,2.4300864E0,1.984842E2,2.6940026E0,3.0415112E2,2.6259048E2,1.4841907E0,3.8803287E2,1.0284126E0,8.051679E2,5.378531E4,7.0067285E2,6.213828E1,5.0165324E0,3.7948627E2,5.439753E2,4.781935E1,1.0839016E0,1.9740031E2,3.0054758E2,3.6035335E0,2.6115387E2,1.4366199E0,3.8692734E2,1.1055148E0,2.0565487E1,7.846025E2,3.8487695E4,1.5297611E4,3.994943E2,3.0117856E2,7.18718E0,3.722991E2,1.1074121E0,5.4286786E2,2.4363067E0,4.5383045E1,1.950775E2,2.3228076E0,2.8135056E0,2.9773407E2,1.0825638E0,2.6007132E2,1.0019972E0,3.8592535E2],"tree_param":{"num_deleted":"0","num_feature":"403159","num_nodes":"63","size_leaf_vector":"1"}},{"base_weights":[-2.620636E-4,-2.4456964E0,7.6797754E-3,-4.411606E0,-3.293151E-1,1.8881917E-2,-1.6779902E0,3.13758E-1,-4.691519E0,2.2393487E-2,-1.5662494E0,-2.046899E0,-1.1484122E0,2.2808535E-1,-4.8346806E0,3.4890052E-2,-1.445309E0,-3.814324E-1,-2.210236E0,-1.1556703E0,-1.5533739E-2,1.9973306E-1,-4.9432287E0,-1.5595603E0,4.651381E-2,-1.6656724E0,-1.1325984E0,-4.878709E-1,-2.4997995E0,-1.1624994E0,-2.0511182E-2,-3.6015415E-1,-1.5117128E0,-3.3083516E-1,-4.9241385E-1,-5.52212E-1,1.6923357E-2,-5.479633E-1,-3.1508526E-1,-3.4440762E-1,1.7407379E-1,-4.869837E-1,-8.3759004E-1,-4.5286706E-1,-3.3625242E-1],"categories":[],"categories_nodes":[],"categories_segments":[],"categories_sizes":[],"default_left":[0,1,1,0,0,1,1,0,0,1,0,0,1,0,0,0,1,0,0,1,0,0,0,0,0,1,1,0,0,0,0,0,0,0,0,0,0,0,0,0,0,0,0,0,0],"id":15,"left_children":[1,3,5,7,-1,9,11,-1,13,15,-1,17,19,-1,21,23,25,-1,27,29,-1,-1,31,33,35,37,39,-1,41,43,-1,-1,-1,-1,-1,-1,-1,-1,-1,-1,-1,-1,-1,-1,-1],"loss_changes":[1.0793007E3,4.7188354E2,1.04603E3,1.1618506E2,0E0,1.0126232E3,6.909436E1,0E0,5.789868E1,1.0086858E3,0E0,2.4329224E1,1.1534119E0,0E0,4.379065E1,1.010695E3,3.0108337E1,0E0,2.5635315E1,1.0445709E0,0E0,0E0,1.784668E1,1.2940247E1,1.0112811E3,2.4835205E1,5.820389E0,0E0,2.5060242E1,4.8208618E-1,0E0,0E0,0E0,0E0,0E0,0E0,0E0,0E0,0E0,0E0,0E0,0E0,0E0,0E0,0E0],"parents":[2147483647,0,0,1,1,2,2,3,3,5,5,6,6,8,8,9,9,11,11,12,12,14,14,15,15,16,16,18,18,19,19,22,22,23,23,24,24,25,25,26,26,28,28,29,29],"right_children":[2,4,6,8,-1,10,12,-1,14,16,-1,18,20,-1,22,24,26,-1,28,30,-1,-1,32,34,36,38,40,-1,42,44,-1,-1,-1,-1,-1,-1,-1,-1,-1,-1,-1,-1,-1,-1,-1],"split_conditions":[4.324637E-1,3.4944464E-2,1.2168479E-1,5.54205E-1,-3.293151E-1,4.032113E-1,3.6315985E-2,3.13758E-1,1.0357072E0,1.0566546E-1,-1.5662494E0,4.716369E-1,2.578677E-1,2.2808535E-1,1.83147E0,1.3175734E0,3.857526E-2,-3.814324E-1,4.528568E-1,2.4932188E-1,-1.5533739E-2,1.9973306E-1,2.1458733E-1,3.9628798E-1,1.045854E0,1.4850588E-1,1.5505663E-1,-4.878709E-1,8.198853E-1,2.0027508E-1,-2.0511182E-2,-3.6015415E-1,-1.5117128E0,-3.3083516E-1,-4.9241385E-1,-5.52212E-1,1.6923357E-2,-5.479633E-1,-3.1508526E-1,-3.4440762E-1,1.7407379E-1,-4.869837E-1,-8.3759004E-1,-4.5286706E-1,-3.3625242E-1],"split_indices":[127539,396305,346630,127493,0,211132,396305,0,26713,27777,0,278270,278270,0,172080,87368,396305,0,398812,107281,0,0,166911,188501,27552,111062,207562,0,169374,301921,0,0,0,0,0,0,0,0,0,0,0,0,0,0,0],"split_type":[0,0,0,0,0,0,0,0,0,0,0,0,0,0,0,0,0,0,0,0,0,0,0,0,0,0,0,0,0,0,0,0,0,0,0,0,0,0,0,0,0,0,0,0,0],"sum_hessian":[5.5571227E4,1.7889633E2,5.539233E4,7.184457E1,1.07051765E2,5.502763E4,3.64698E2,3.3716202E0,6.8472946E1,5.499177E4,3.585888E1,2.1326822E2,1.5142978E2,1.6417587E0,6.6831184E1,5.4528473E4,4.632994E2,3.8633953E1,1.7463426E2,1.5038065E2,1.0491261E0,1.1940063E0,6.5637184E1,3.936792E2,5.4134793E4,2.6924164E2,1.9405777E2,6.0079826E1,1.1455444E2,1.4937329E2,1.0073527E0,1.9760824E0,6.36611E1,6.2004078E1,3.316751E2,2.8145944E2,5.3853332E4,2.1188379E2,5.7357845E1,1.9265236E2,1.4054016E0,3.0277107E1,8.4277336E1,1.2231862E1,1.3714143E2],"tree_param":{"num_deleted":"0","num_feature":"403159","num_nodes":"45","size_leaf_vector":"1"}},{"base_weights":[-2.4038341E-4,1.3031478E0,-1.4255241E-2,1.1060222E0,2.0136838E0,1.2013532E0,-2.9185884E-2,3.2554954E-2,1.1081808E0,2.203483E0,1.8910619E0,1.0968932E0,2.7386765E0,-3.7845745E0,-2.4399767E-2,3.0817217E-1,1.1556963E0,1.010766E0,2.319513E0,1.1438367E0,-1.0300262E-1,4.9957174E-1,3.1559682E0,-5.0808E0,-2.3972943E0,9.7119147E-1,-4.229265E-2,5.7631537E-2,1.1585493E0,3.5999008E-2,3.101213E-1,1.4067577E0,4.0028467E0,1.1503499E0,-4.024116E-1,-5.6041175E-1,9.163889E-2,6.0368264E-1,3.9424396E0,-7.076287E-1,-1.5835888E0,-3.0172396E-1,-8.581321E-1,9.916837E-1,-1.6160971E0,1.3207225E0,-5.5202257E-2,3.136153E-1,3.605974E-1,2.6922575E-1,4.375707E-1,3.3757365E-1,1.5923128E0,3.4661072E-1,-2.0569982E-1,-4.658635E-1,9.157236E-2,4.431956E-1,1.5106424E0,-3.6883253E-1,3.03731E-1,-5.412673E-1,-1.0203383E-1,3.601847E-1,4.9938247E-1,3.5113826E-1,-2.0787224E-2],"categories":[],"categories_nodes":[],"categories_segments":[],"categories_sizes":[],"default_left":[0,1,0,0,0,1,0,0,0,0,0,1,0,0,0,0,0,0,0,1,0,0,0,0,0,1,0,0,0,0,0,0,0,1,0,0,0,0,0,0,0,0,0,0,0,1,0,0,0,0,0,0,0,0,0,0,0,0,0,0,0,0,0,0,0,0,0],"id":16,"left_children":[1,3,5,7,9,11,13,-1,15,-1,17,19,21,23,25,-1,27,29,31,33,35,-1,37,39,41,43,45,-1,47,-1,-1,49,51,53,-1,-1,55,-1,57,-1,-1,-1,-1,59,61,63,65,-1,-1,-1,-1,-1,-1,-1,-1,-1,-1,-1,-1,-1,-1,-1,-1,-1,-1,-1,-1],"loss_changes":[1.0092861E3,8.01015E1,9.92189E2,8.7524414E-1,6.876599E1,1.0351343E2,9.705323E2,0E0,5.8673096E-1,0E0,4.47789E1,3.5196167E1,1.3349396E1,1.1141229E2,9.6083295E2,0E0,5.5444336E-1,7.4918747E-1,1.2230539E2,1.1245056E1,8.541506E0,0E0,1.7963654E1,6.201355E0,1.9739792E1,5.209021E1,9.3236847E2,0E0,1.2780762E-1,0E0,0E0,1.5653229E-1,1.0191873E2,6.3062744E0,0E0,0E0,8.517283E0,0E0,3.5718567E1,0E0,0E0,0E0,0E0,4.4822205E1,1.2738876E0,1.8535461E1,9.0641724E2,0E0,0E0,0E0,0E0,0E0,0E0,0E0,0E0,0E0,0E0,0E0,0E0,0E0,0E0,0E0,0E0,0E0,0E0,0E0,0E0],"parents":[2147483647,0,0,1,1,2,2,3,3,4,4,5,5,6,6,8,8,10,10,11,11,12,12,13,13,14,14,16,16,17,17,18,18,19,19,20,20,22,22,23,23,24,24,25,25,26,26,28,28,31,31,32,32,33,33,36,36,38,38,43,43,44,44,45,45,46,46],"right_children":[2,4,6,8,10,12,14,-1,16,-1,18,20,22,24,26,-1,28,30,32,34,36,-1,38,40,42,44,46,-1,48,-1,-1,50,52,54,-1,-1,56,-1,58,-1,-1,-1,-1,60,62,64,66,-1,-1,-1,-1,-1,-1,-1,-1,-1,-1,-1,-1,-1,-1,-1,-1,-1,-1,-1,-1],"split_conditions":[9.3628E-1,3.749943E-2,6.1758902E-2,2.858849E-1,5.980394E-1,3.857526E-2,5.357245E-1,3.2554954E-2,9.533656E-1,2.203483E0,9.533656E-1,2.5724813E-2,1.8443745E-1,6.238269E-1,5.6832147E-1,3.0817217E-1,4.5568863E-1,9.261575E-2,2.1297434E-1,7.4114375E-2,1.2185407E-1,4.9957174E-1,2.0130883E-1,3.0670133E-1,1.06080845E-1,2.0726879E-1,1.9492235E0,5.7631537E-2,1E0,3.5999008E-2,3.101213E-1,1.2712036E-1,4.5565403E-1,5.072149E-2,-4.024116E-1,-5.6041175E-1,1.6125293E-1,6.0368264E-1,3.09554E-1,-7.076287E-1,-1.5835888E0,-3.0172396E-1,-8.581321E-1,4.7757003E-1,3.007357E-1,4.0964417E-2,1.038235E0,3.136153E-1,3.605974E-1,2.6922575E-1,4.375707E-1,3.3757365E-1,1.5923128E0,3.4661072E-1,-2.0569982E-1,-4.658635E-1,9.157236E-2,4.431956E-1,1.5106424E0,-3.6883253E-1,3.03731E-1,-5.412673E-1,-1.0203383E-1,3.601847E-1,4.9938247E-1,3.5113826E-1,-2.0787224E-2],"split_indices":[80478,396305,207562,193077,122787,396305,361699,0,395126,0,395126,396305,301921,167082,212218,0,309749,207562,301921,181646,366239,0,213328,287055,396305,138785,159466,0,301921,0,0,301921,353851,309287,0,0,319236,0,353851,0,0,0,0,174299,212934,396305,226751,0,0,0,0,0,0,0,0,0,0,0,0,0,0,0,0,0,0,0,0],"split_type":[0,0,0,0,0,0,0,0,0,0,0,0,0,0,0,0,0,0,0,0,0,0,0,0,0,0,0,0,0,0,0,0,0,0,0,0,0,0,0,0,0,0,0,0,0,0,0,0,0,0,0,0,0,0,0,0,0,0,0,0,0,0,0,0,0,0,0],"sum_hessian":[5.5250473E4,5.8678955E2,5.4663684E4,4.6135217E2,1.2543737E2,6.622931E2,5.400139E4,1.1069069E0,4.6024527E2,1.4960066E0,1.2394136E2,6.2175854E2,4.0534534E1,6.773016E1,5.393366E4,1.7861058E2,2.816347E2,4.1674995E1,8.2266365E1,5.983943E2,2.3364244E1,1.27436E1,2.7790934E1,3.363779E1,3.4092377E1,9.5124866E2,5.298241E4,1.033124E0,2.8060156E2,1.2041835E0,4.0470814E1,5.4532734E1,2.773363E1,5.973659E2,1.0284271E0,1.4666972E0,2.1897547E1,1.2773794E1,1.5017139E1,3.154639E0,3.048315E1,9.305387E0,2.4786991E1,9.443855E2,6.863146E0,4.961567E2,5.2486254E4,8.47901E1,1.9581148E2,6.726613E0,4.780612E1,9.233477E0,1.8500153E1,5.96107E2,1.2588619E0,1.7964885E0,2.0101059E1,5.33552E0,9.68162E0,8.202983E0,9.361825E2,5.620492E0,1.2426542E0,3.7105276E2,1.2510394E2,5.955189E2,5.1890734E4],"tree_param":{"num_deleted":"0","num_feature":"403159","num_nodes":"67","size_leaf_vector":"1"}},{"base_weights":[2.268335E-3,-2.3423285E0,9.362945E-3,-3.351118E-1,-2.6900828E0,2.0621518E-2,-1.446404E0,-3.857725E-1,-2.992296E0,3.8402565E-2,-9.314859E-1,-8.2952553E-1,-1.3597549E0,-4.6444887E-1,-3.3587885E0,5.3002022E-2,-1.1302817E0,1.7012732E0,-9.7511226E-1,5.915293E-1,-1.3829613E0,-5.587082E-1,-3.7529159E0,8.4773496E-2,-5.1502275E-1,-1.1425736E0,6.493655E-1,2.1919177E0,-2.3277563E-1,5.8548075E-1,-1.0027232E0,3.3083802E-1,-1.4037849E0,-2.942939E-1,-1.164659E0,2.890339E-2,-4.5431304E-1,5.3540707E-1,-1.6453874E-1,9.518332E-2,-3.4656686E-1,4.2069596E-1,1.1573485E0,-1.986974E-1,-3.485254E-1,-3.0363205E-1,-4.6846718E-1],"categories":[],"categories_nodes":[],"categories_segments":[],"categories_sizes":[],"default_left":[0,0,1,0,0,1,0,0,0,1,0,0,0,0,0,1,1,0,0,0,0,0,0,1,0,0,0,1,0,0,0,0,0,0,0,0,0,0,0,0,0,0,0,0,0,0,0],"id":17,"left_children":[1,3,5,-1,7,9,11,-1,13,15,17,-1,19,-1,21,23,25,27,29,-1,31,-1,33,35,37,39,-1,41,-1,-1,43,-1,45,-1,-1,-1,-1,-1,-1,-1,-1,-1,-1,-1,-1,-1,-1],"loss_changes":[9.093467E2,6.7268555E1,8.933213E2,0E0,5.036554E1,9.156728E2,4.4035095E1,0E0,5.004126E1,9.0597186E2,1.15550964E2,0E0,3.3224182E1,0E0,4.1604004E1,9.4643994E2,2.900592E1,2.1788944E1,8.083197E1,0E0,2.1855835E1,0E0,1.920929E1,9.1912286E2,2.1460767E2,1.2431274E1,0E0,1.3080444E1,0E0,0E0,5.160968E1,0E0,2.2489502E1,0E0,0E0,0E0,0E0,0E0,0E0,0E0,0E0,0E0,0E0,0E0,0E0,0E0,0E0],"parents":[2147483647,0,0,1,1,2,2,4,4,5,5,6,6,8,8,9,9,10,10,12,12,14,14,15,15,16,16,17,17,18,18,20,20,22,22,23,23,24,24,25,25,27,27,30,30,32,32],"right_children":[2,4,6,-1,8,10,12,-1,14,16,18,-1,20,-1,22,24,26,28,30,-1,32,-1,34,36,38,40,-1,42,-1,-1,44,-1,46,-1,-1,-1,-1,-1,-1,-1,-1,-1,-1,-1,-1,-1,-1],"split_conditions":[9.761805E-1,1.2239646E-1,1.1596873E-1,-3.351118E-1,5.31398E-1,1.0492481E-1,1.6588085E0,-3.857725E-1,6.1126494E-1,8.836939E-2,4.3141007E-1,-8.2952553E-1,6.852282E-1,-4.6444887E-1,3.458586E-1,1.011574E-1,2.460899E-1,4.316573E-1,1.7527902E0,5.915293E-1,3.5431254E-1,-5.587082E-1,1.8911248E-1,1.1344362E-1,6.137696E-1,1.6676274E-1,6.493655E-1,3.857526E-2,-2.3277563E-1,5.8548075E-1,2.0186007E-1,3.3083802E-1,1E0,-2.942939E-1,-1.164659E0,2.890339E-2,-4.5431304E-1,5.3540707E-1,-1.6453874E-1,9.518332E-2,-3.4656686E-1,4.2069596E-1,1.1573485E0,-1.986974E-1,-3.485254E-1,-3.0363205E-1,-4.6846718E-1],"split_indices":[279330,396305,119882,0,346630,166911,316161,0,169374,28100,237521,0,227684,0,278270,396305,377537,187806,136837,0,212422,0,28100,78162,193077,111062,0,396305,0,0,166911,0,396305,0,0,0,0,0,0,0,0,0,0,0,0,0,0],"split_type":[0,0,0,0,0,0,0,0,0,0,0,0,0,0,0,0,0,0,0,0,0,0,0,0,0,0,0,0,0,0,0,0,0,0,0,0,0,0,0,0,0,0,0,0,0,0,0],"sum_hessian":[5.466562E4,1.6392288E2,5.45017E4,3.716977E1,1.2675311E2,5.4084406E4,4.1729077E2,2.3379549E1,1.03373566E2,5.3093816E4,9.905919E2,2.3823174E1,3.9346762E2,2.1981508E1,8.139205E1,5.2439684E4,6.541332E2,1.5527773E1,9.7506415E2,2.1409829E0,3.9132663E2,1.8161503E1,6.323055E1,4.9662734E4,2.7769475E3,6.5235266E2,1.7804878E0,1.3056834E1,2.470939E0,8.461632E0,9.666025E2,2.8193183E0,3.8850732E2,3.2002919E0,6.003026E1,4.93069E4,3.5583524E2,3.9049736E1,2.7378977E3,5.397016E0,6.469557E2,1.0107783E1,2.9490504E0,3.094315E2,6.57171E2,1.1368739E2,2.7481992E2],"tree_param":{"num_deleted":"0","num_feature":"403159","num_nodes":"47","size_leaf_vector":"1"}},{"base_weights":[4.4680666E-5,6.3224566E-1,-2.6068155E-2,8.521328E-1,2.7879113E-1,-2.0961687E-2,-3.215407E0,8.6447316E-1,-5.121419E-1,9.9734175E-1,1.2806527E-1,1.3120941E0,-3.308298E-2,-3.996552E0,1.3267329E0,-7.9651946E-1,8.721402E-1,2.3845756E-2,1.0097599E0,2.4919711E-2,1.1656419E0,1.1314269E0,1.966514E0,1.5054483E0,-4.3324202E-2,-5.431725E-1,-4.448552E0,7.662746E-1,8.4946656E-1,-9.155042E-1,8.780174E-1,3.477616E-2,1.021686E0,3.890932E-1,-7.18156E-2,-2.3064668E-1,1.2149335E0,3.0754054E-1,3.7328082E-1,3.021587E-1,2.4831955E0,1.3377392E0,4.705195E0,-3.7208177E-2,-2.767124E0,-5.7562035E-1,-4.9515805E0,9.0794706E-1,-5.128148E-2,-8.757651E-1,2.6496598E-1,3.113619E-1,9.24415E-2,4.3878832E-1,-4.6945784E-2,2.5075543E-1,4.067728E-1,4.4798896E-1,8.6524457E-1,3.7575394E-1,7.1253186E-1,4.9009028E-1,1.5918107E0,3.5360417E-1,-1.5006637E-2,1.9738124E-1,-8.426401E-1,-5.105497E-1,-1.508712E0,2.9657036E-1,3.7300777E-2],"categories":[],"categories_nodes":[],"categories_segments":[],"categories_sizes":[],"default_left":[0,1,1,1,0,0,0,0,0,0,1,1,0,0,1,0,0,0,0,0,0,0,0,1,1,0,0,1,0,0,0,0,1,0,0,0,0,0,0,0,0,1,0,0,0,0,0,0,0,0,0,0,0,0,0,0,0,0,0,0,0,0,0,0,0,0,0,0,0,0,0],"id":18,"left_children":[1,3,5,7,9,11,13,15,-1,17,19,21,23,25,27,-1,29,-1,31,33,35,37,39,41,43,-1,45,47,-1,-1,49,-1,51,-1,53,-1,55,-1,-1,-1,57,59,61,63,65,-1,67,69,-1,-1,-1,-1,-1,-1,-1,-1,-1,-1,-1,-1,-1,-1,-1,-1,-1,-1,-1,-1,-1,-1,-1],"loss_changes":[8.863791E2,1.6528784E2,8.396899E2,4.2926758E1,8.8496475E1,8.318905E2,2.9772784E2,3.7580017E1,0E0,1.5352783E0,7.248355E1,5.2624817E1,8.039271E2,6.167639E1,8.663519E0,0E0,3.276831E1,0E0,1.3714142E0,7.6054794E1,6.773781E0,3.1131592E0,4.657495E1,1.7475458E2,8.44193E2,0E0,6.4047E1,1.5799274E0,0E0,0E0,2.8330566E1,0E0,1.2717285E0,0E0,7.488587E1,0E0,2.0789795E0,0E0,0E0,0E0,2.0963654E1,2.5491394E1,2.1608368E1,7.879421E2,1.8054016E1,0E0,3.4176025E0,4.759636E-1,0E0,0E0,0E0,0E0,0E0,0E0,0E0,0E0,0E0,0E0,0E0,0E0,0E0,0E0,0E0,0E0,0E0,0E0,0E0,0E0,0E0,0E0,0E0],"parents":[2147483647,0,0,1,1,2,2,3,3,4,4,5,5,6,6,7,7,9,9,10,10,11,11,12,12,13,13,14,14,16,16,18,18,19,19,20,20,21,21,22,22,23,23,24,24,26,26,27,27,30,30,32,32,34,34,36,36,40,40,41,41,42,42,43,43,44,44,46,46,47,47],"right_children":[2,4,6,8,10,12,14,16,-1,18,20,22,24,26,28,-1,30,-1,32,34,36,38,40,42,44,-1,46,48,-1,-1,50,-1,52,-1,54,-1,56,-1,-1,-1,58,60,62,64,66,-1,68,70,-1,-1,-1,-1,-1,-1,-1,-1,-1,-1,-1,-1,-1,-1,-1,-1,-1,-1,-1,-1,-1,-1,-1],"split_conditions":[9.1131806E-1,3.0985596E-2,2.3917773E-1,2.0329319E-1,6.087778E-1,1.0625086E0,3.8213173E-1,6.654259E-1,-5.121419E-1,3.0488354E-1,2.2200869E-1,3.857526E-2,5.862777E-1,2.267048E-1,5.2374527E-2,-7.9651946E-1,3.94962E-1,2.3845756E-2,3.481039E-1,5.470342E-1,2.1231622E-1,9.533656E-1,3.309724E-1,6.427922E-2,2.8015986E-1,-5.431725E-1,3.0683595E-1,9.397946E-2,8.4946656E-1,-9.155042E-1,4.193833E-1,3.477616E-2,2.1867506E-1,3.890932E-1,4.9426493E-1,-2.3064668E-1,1.825759E-1,3.0754054E-1,3.7328082E-1,3.021587E-1,1.945375E-1,3.6315985E-2,1.7449251E-1,1.2320472E0,1.275216E0,-5.7562035E-1,2.6213792E-1,4.5403892E-1,-5.128148E-2,-8.757651E-1,2.6496598E-1,3.113619E-1,9.24415E-2,4.3878832E-1,-4.6945784E-2,2.5075543E-1,4.067728E-1,4.4798896E-1,8.6524457E-1,3.7575394E-1,7.1253186E-1,4.9009028E-1,1.5918107E0,3.5360417E-1,-1.5006637E-2,1.9738124E-1,-8.426401E-1,-5.105497E-1,-1.508712E0,2.9657036E-1,3.7300777E-2],"split_indices":[353851,396305,218794,117782,245838,213121,89565,223357,0,93529,377320,396305,250845,359924,396305,0,195771,0,294576,381488,28100,395126,395126,396305,370800,0,119882,207562,0,0,181704,0,301921,0,272538,0,353851,0,0,0,301921,396305,301921,171217,278748,0,266631,218794,0,0,0,0,0,0,0,0,0,0,0,0,0,0,0,0,0,0,0,0,0,0,0],"split_type":[0,0,0,0,0,0,0,0,0,0,0,0,0,0,0,0,0,0,0,0,0,0,0,0,0,0,0,0,0,0,0,0,0,0,0,0,0,0,0,0,0,0,0,0,0,0,0,0,0,0,0,0,0,0,0,0,0,0,0,0,0,0,0,0,0,0,0,0,0,0,0],"sum_hessian":[5.369009E4,2.1287634E3,5.156133E4,1.3114735E3,8.1729004E2,5.147991E4,8.14182E1,1.3058391E3,5.6342993E0,1.4073787E2,6.765522E2,4.6291534E2,5.1016992E4,6.957329E1,1.1844909E1,2.0879314E0,1.3037512E3,1.977491E0,1.3876039E2,6.163089E2,6.024329E1,3.6490427E2,9.8011055E1,3.363832E2,5.068061E4,1.2778617E1,5.679467E1,9.730193E0,2.1147158E0,1.1747919E0,1.3025764E3,1.9681797E0,1.367922E2,4.267891E1,5.7363E2,1.1341907E0,5.91091E1,1.9309918E2,1.718051E2,3.534173E1,6.2669327E1,3.2097778E2,1.5405421E1,5.056808E4,1.1253198E2,1.021849E1,4.657618E1,8.479611E0,1.2505821E0,1.015823E0,1.3015605E3,1.3331342E2,3.478792E0,2.91465E1,5.4448346E2,1.7901423E1,4.1207676E1,1.9428154E1,4.3241173E1,2.986493E2,2.2328491E1,3.1289275E0,1.2276494E1,5.264176E2,5.004166E4,1.1750674E0,1.1135691E2,1.6190937E0,4.4957085E1,7.451427E0,1.0281839E0],"tree_param":{"num_deleted":"0","num_feature":"403159","num_nodes":"71","size_leaf_vector":"1"}},{"base_weights":[2.528781E-3,1.5729994E-2,-1.1885355E0,2.784714E-2,-1.2552936E0,-1.0315478E0,-2.78253E0,3.8721804E-2,-1.4089887E0,-1.4183562E0,-1.0479784E0,-1.1111326E0,1.2545447E0,-4.051635E-1,-8.72669E-1,4.7437616E-2,-1.701739E0,-1.565406E0,-1.0500671E0,-1.4228393E0,-9.559561E-2,-3.171011E-1,1.42659E-1,-1.1697006E0,1.5845548E0,6.143305E-1,3.2230684E-1,5.5926524E-2,-1.7443095E0,-2.0856867E0,-1.0390989E0,2.8667155E-1,-1.580378E0,-1.0732201E0,2.4962433E-1,-5.512379E-1,-4.2828026E-1,5.418912E-1,-1.2010121E0,3.2450178E-1,9.321645E-1,-7.2411287E-1,1.8643593E-2,-9.6585655E-1,-3.3302957E-1,1.7398646E-1,-6.3287485E-1,-3.2107237E-1,1.6025713E-1,-5.860573E-1,-4.2452827E-1,1.7772827E-1,-3.2762522E-1,-1.9837464E-1,-4.8731573E-2,-3.6961082E-1,3.1111228E-1],"categories":[],"categories_nodes":[],"categories_segments":[],"categories_sizes":[],"default_left":[1,1,1,1,1,1,0,1,1,1,1,1,0,0,0,1,1,0,1,0,0,0,0,0,1,0,0,0,1,0,1,0,1,0,0,0,0,0,1,0,0,0,0,0,0,0,0,0,0,0,0,0,0,0,0,0,0],"id":19,"left_children":[1,3,5,7,9,11,13,15,17,19,21,23,25,-1,-1,27,29,31,33,35,-1,-1,-1,37,39,-1,-1,41,43,45,47,-1,49,51,-1,53,-1,-1,55,-1,-1,-1,-1,-1,-1,-1,-1,-1,-1,-1,-1,-1,-1,-1,-1,-1,-1],"loss_changes":[8.367034E2,8.106E2,1.4310065E2,8.146546E2,1.5315796E1,9.829773E1,5.4286194E0,7.850037E2,2.0343384E1,9.041748E-1,3.5640717E0,8.319879E1,4.281273E-1,0E0,0E0,7.8320667E2,6.3435974E1,1.1728638E1,6.205475E0,3.501587E-1,0E0,0E0,0E0,4.9213074E1,5.35355E0,0E0,0E0,7.871736E2,2.2360077E2,1.1559448E1,5.3041534E0,0E0,1.3857483E1,4.444626E0,0E0,2.5933206E-2,0E0,0E0,3.600763E1,0E0,0E0,0E0,0E0,0E0,0E0,0E0,0E0,0E0,0E0,0E0,0E0,0E0,0E0,0E0,0E0,0E0,0E0],"parents":[2147483647,0,0,1,1,2,2,3,3,4,4,5,5,6,6,7,7,8,8,9,9,10,10,11,11,12,12,15,15,16,16,17,17,18,18,19,19,23,23,24,24,27,27,28,28,29,29,30,30,32,32,33,33,35,35,38,38],"right_children":[2,4,6,8,10,12,14,16,18,20,22,24,26,-1,-1,28,30,32,34,36,-1,-1,-1,38,40,-1,-1,42,44,46,48,-1,50,52,-1,54,-1,-1,56,-1,-1,-1,-1,-1,-1,-1,-1,-1,-1,-1,-1,-1,-1,-1,-1,-1,-1],"split_conditions":[9.588375E-2,1.2596698E-1,2.2256513E-1,7.311595E-2,3.944116E-2,1.5058106E-1,3.5643414E-1,1.2830704E-1,3.0985596E-2,1.8855485E-1,1.9437571E-1,3.0072358E-1,3.399853E-1,-4.051635E-1,-8.72669E-1,1.0454033E-1,3.6315985E-2,1.7049961E0,2.0222448E-1,1.6649044E-1,-9.559561E-2,-3.171011E-1,1.42659E-1,1.053724E0,5.04027E-2,6.143305E-1,3.2230684E-1,1.425904E0,3.0985596E-2,1.0869972E0,1.7415035E-1,2.8667155E-1,1.5265621E-1,4.3905148E-1,2.4962433E-1,9.708971E-2,-4.2828026E-1,5.418912E-1,1.3672855E-1,3.2450178E-1,9.321645E-1,-7.2411287E-1,1.8643593E-2,-9.6585655E-1,-3.3302957E-1,1.7398646E-1,-6.3287485E-1,-3.2107237E-1,1.6025713E-1,-5.860573E-1,-4.2452827E-1,1.7772827E-1,-3.2762522E-1,-1.9837464E-1,-4.8731573E-2,-3.6961082E-1,3.1111228E-1],"split_indices":[212934,299362,138785,271313,396305,339618,212218,92285,396305,207553,207553,250170,378461,0,0,367423,396305,391948,301921,299362,0,0,0,157852,396305,0,0,111045,396305,124347,207553,0,398812,335897,0,207562,0,0,301921,0,0,0,0,0,0,0,0,0,0,0,0,0,0,0,0,0,0],"split_type":[0,0,0,0,0,0,0,0,0,0,0,0,0,0,0,0,0,0,0,0,0,0,0,0,0,0,0,0,0,0,0,0,0,0,0,0,0,0,0,0,0,0,0,0,0,0,0,0,0,0,0,0,0,0,0,0,0],"sum_hessian":[5.32114E4,5.2629066E4,5.823298E2,5.2133043E4,4.9602585E2,5.316193E2,5.071043E1,5.1742402E4,3.9063834E2,2.7437567E2,2.2165018E2,5.1423157E2,1.738777E1,5.05984E0,4.565059E1,5.148555E4,2.568546E2,2.697294E2,1.2090895E2,2.7296906E2,1.4066204E0,2.2064926E2,1.0009177E0,5.038507E2,1.0380859E1,1.3000648E0,1.6087706E1,5.124374E4,2.4181287E2,1.6126607E2,9.558853E1,1.221552E0,2.6850784E2,1.1986425E2,1.0447056E0,2.1175764E0,2.7085147E2,4.6557646E0,4.9919492E2,9.089345E0,1.2915145E0,1.2774024E2,5.1115996E4,7.147692E1,1.7033594E2,1.226058E0,1.6004001E2,9.404668E1,1.5418584E0,7.910362E1,1.8940422E2,1.0017972E0,1.1886245E2,1.1043534E0,1.013223E0,4.9281308E2,6.3818455E0],"tree_param":{"num_deleted":"0","num_feature":"403159","num_nodes":"57","size_leaf_vector":"1"}},{"base_weights":[7.493717E-4,-1.5862559E0,3.5396186E-3,1.4494698E-2,-1.2956309E0,2.3710916E-2,-1.4882307E0,-1.3536917E0,1.6782477E0,-4.8789787E0,2.6526973E-2,-1.3283377E0,-1.780325E0,-1.0027848E0,-1.770886E0,1.0655121E0,8.5960275E-1,-6.434539E-1,-1.5894948E0,-1.7719841E0,3.416089E-2,2.1274461E-1,-1.3427573E0,-4.108113E-1,-5.747216E-1,-2.2642228E-1,-1.0416214E0,3.905107E-1,-1.8492306E0,5.2095115E-1,3.9443722E-1,-5.849513E-1,-3.3096308E-1,4.4332144E-1,7.421725E-3,-3.1645536E-1,-4.2617628E-1,-2.1135077E-1,6.2813276E-1,-1.5125877E-2,-3.1375808E-1,2.7368993E-1,-5.811544E-1,1.8243308E-1,5.444798E-2],"categories":[],"categories_nodes":[],"categories_segments":[],"categories_sizes":[],"default_left":[0,0,1,1,1,0,1,0,1,0,0,0,0,0,0,0,0,0,0,1,0,0,0,0,0,0,0,0,0,0,0,0,0,0,0,0,0,0,0,0,0,0,0,0,0],"id":20,"left_children":[1,-1,3,5,7,9,11,13,15,17,19,21,23,25,27,29,-1,-1,-1,31,33,-1,35,-1,-1,37,39,-1,41,43,-1,-1,-1,-1,-1,-1,-1,-1,-1,-1,-1,-1,-1,-1,-1],"loss_changes":[7.788272E2,0E0,7.508379E2,7.245505E2,7.843988E1,7.1799585E2,1.2528931E1,6.1648376E1,3.416216E0,2.286438E1,7.135498E2,7.1227417E0,3.4909973E0,6.9286194E0,4.9737366E1,3.2747936E-1,0E0,0E0,0E0,2.3976562E1,7.0379663E2,0E0,3.1823425E0,0E0,0E0,1.5449284E1,8.9689636E-1,0E0,4.843457E1,7.926583E-3,0E0,0E0,0E0,0E0,0E0,0E0,0E0,0E0,0E0,0E0,0E0,0E0,0E0,0E0,0E0],"parents":[2147483647,0,0,2,2,3,3,4,4,5,5,6,6,7,7,8,8,9,9,10,10,11,11,12,12,13,13,14,14,15,15,19,19,20,20,22,22,25,25,26,26,28,28,29,29],"right_children":[2,-1,4,6,8,10,12,14,16,18,20,22,24,26,28,30,-1,-1,-1,32,34,-1,36,-1,-1,38,40,-1,42,44,-1,-1,-1,-1,-1,-1,-1,-1,-1,-1,-1,-1,-1,-1,-1],"split_conditions":[9.851328E-1,-1.5862559E0,1.5482453E-1,1.9046025E-1,1.1672774E-1,1.149296E0,4.296884E-1,1.4732683E-1,4.3607306E-2,1.5006566E-1,1.5006746E0,1.7127466E0,2.1031865E-1,5.3799774E-2,1.2261987E0,2.3311585E-1,8.5960275E-1,-6.434539E-1,-1.5894948E0,3.6315985E-2,9.7531617E-1,2.1274461E-1,3.9402902E-1,-4.108113E-1,-5.747216E-1,1.971703E-1,1.835118E-1,3.905107E-1,3.697093E-1,2.168073E-1,3.9443722E-1,-5.849513E-1,-3.3096308E-1,4.4332144E-1,7.421725E-3,-3.1645536E-1,-4.2617628E-1,-2.1135077E-1,6.2813276E-1,-1.5125877E-2,-3.1375808E-1,2.7368993E-1,-5.811544E-1,1.8243308E-1,5.444798E-2],"split_indices":[180752,0,93438,188501,207553,227730,188737,396305,396305,207562,268515,185899,207562,396305,213525,93438,0,0,0,396305,143499,0,87368,0,0,93438,166911,0,245838,93438,0,0,0,0,0,0,0,0,0,0,0,0,0,0,0],"split_type":[0,0,0,0,0,0,0,0,0,0,0,0,0,0,0,0,0,0,0,0,0,0,0,0,0,0,0,0,0,0,0,0,0,0,0,0,0,0,0,0,0,0,0,0,0],"sum_hessian":[5.2779625E4,2.6834597E1,5.275279E4,5.2312656E4,4.4013052E2,5.1994758E4,3.1789975E2,4.322365E2,7.8939962E0,2.885411E1,5.1965902E4,2.090261E2,1.08873665E2,2.3661806E2,1.9561845E2,6.4581246E0,1.4358718E0,4.650051E0,2.420406E1,2.186641E2,5.174724E4,1.1303471E0,2.0789575E2,2.9737751E1,7.913591E1,1.1598E1,2.2502007E2,4.475601E0,1.9114285E2,2.9982157E0,3.4599087E0,1.7121558E2,4.744852E1,3.3453857E2,5.1412703E4,4.7338028E1,1.6055772E2,1.0193893E1,1.4041058E0,1.0130937E0,2.2400697E2,5.610411E0,1.8553244E2,1.7559443E0,1.2422714E0],"tree_param":{"num_deleted":"0","num_feature":"403159","num_nodes":"45","size_leaf_vector":"1"}},{"base_weights":[1.0169614E-3,6.738516E-1,-1.8925657E-2,2.1057534E-1,8.934311E-1,1.4013255E0,-2.874479E-2,-2.0042992E0,2.6113114E-1,1.0331228E0,6.594618E-1,1.1926804E0,1.9508501E0,-2.5365507E-2,-3.9810278E0,-2.576877E0,-4.0975896E-1,1.0624043E0,1.316541E-1,1.0404856E0,-3.537899E-1,-4.0727836E-1,6.7141217E-1,1.1984346E0,-1.6462756E-2,1.1869947E0,2.1102028E0,-2.0411791E-2,-2.7206733E0,-8.700041E-1,-1.5791049E0,-2.3652875E-1,-8.790596E-1,3.1218288E-2,3.2311374E-1,4.4350404E-1,6.484629E-2,-1.0651433E-1,1.0437205E0,6.8534404E-1,-3.254567E-1,1.203528E0,6.384652E-2,-2.569657E-2,1.2979962E0,4.3256924E-1,2.2854474E0,-1.4101922E-2,-2.1179218E0,-5.5466825E-1,-3.2230136E0,-5.991522E-1,3.086597E-2,1.2579763E-3,3.1360993E-1,2.0863111E-1,-4.0475166E-1,3.62275E-1,2.8125929E-2,5.016733E-1,3.088585E-1,7.034167E-1,2.78459E-1,-3.037273E-3,-9.8993635E-1,-3.2289994E-1,-7.848654E-1,-7.0247835E-1,-1.0953193E0],"categories":[],"categories_nodes":[],"categories_segments":[],"categories_sizes":[],"default_left":[0,0,0,0,0,1,1,0,0,1,0,1,0,1,0,0,0,0,0,0,0,0,1,1,0,0,0,1,0,0,0,0,0,0,0,0,0,0,0,1,0,1,0,0,0,0,1,1,0,0,0,0,0,0,0,0,0,0,0,0,0,0,0,0,0,0,0,0,0],"id":21,"left_children":[1,3,5,7,9,11,13,15,17,19,21,23,25,27,29,31,-1,33,35,37,-1,-1,39,41,-1,43,45,47,49,-1,-1,-1,-1,-1,-1,-1,51,-1,53,55,-1,57,-1,-1,59,-1,61,63,65,-1,67,-1,-1,-1,-1,-1,-1,-1,-1,-1,-1,-1,-1,-1,-1,-1,-1,-1,-1],"loss_changes":[7.0542554E2,1.537622E2,7.120961E2,5.5161804E1,3.286615E1,3.787195E1,6.77173E2,5.030899E-1,4.9445614E1,1.1667725E1,1.0227707E1,1.9085388E0,9.048096E0,6.764462E2,4.47937E1,6.4299774E-1,0E0,8.188629E-1,3.70258E1,3.256897E0,0E0,0E0,1.0160858E1,1.0267944E0,0E0,2.7483578E0,5.7510986E0,6.6933826E2,3.4743774E1,0E0,0E0,0E0,0E0,0E0,0E0,0E0,3.1122293E1,0E0,1.0874023E0,8.792023E0,0E0,1.0300293E0,0E0,0E0,9.778976E-3,0E0,2.609436E0,6.5898944E2,7.590991E1,0E0,1.3190369E1,0E0,0E0,0E0,0E0,0E0,0E0,0E0,0E0,0E0,0E0,0E0,0E0,0E0,0E0,0E0,0E0,0E0,0E0],"parents":[2147483647,0,0,1,1,2,2,3,3,4,4,5,5,6,6,7,7,8,8,9,9,10,10,11,11,12,12,13,13,14,14,15,15,17,17,18,18,19,19,22,22,23,23,25,25,26,26,27,27,28,28,36,36,38,38,39,39,41,41,44,44,46,46,47,47,48,48,50,50],"right_children":[2,4,6,8,10,12,14,16,18,20,22,24,26,28,30,32,-1,34,36,38,-1,-1,40,42,-1,44,46,48,50,-1,-1,-1,-1,-1,-1,-1,52,-1,54,56,-1,58,-1,-1,60,-1,62,64,66,-1,68,-1,-1,-1,-1,-1,-1,-1,-1,-1,-1,-1,-1,-1,-1,-1,-1,-1,-1],"split_conditions":[1.3557075E-1,5.9803974E-2,1.2564148E0,2.1591939E-1,1.0359937E-1,5.9525512E-2,2.677472E-1,1.6945596E-1,7.736461E-2,1.3554586E-1,2.6482055E-1,1.2906212E-1,1.6160935E-1,2.151792E-1,1.5996769E-1,1.3292566E-1,-4.0975896E-1,2.6079094E-1,3.5863692E-1,1.4186418E-1,-3.537899E-1,-4.0727836E-1,1.5968181E-1,5.8629133E-2,-1.6462756E-2,6.715851E-2,2.079614E-1,1.559486E-1,2.0451489E-1,-8.700041E-1,-1.5791049E0,-2.3652875E-1,-8.790596E-1,3.1218288E-2,3.2311374E-1,4.4350404E-1,2.1335636E-1,-1.0651433E-1,2.020559E-1,1.8600671E-1,-3.254567E-1,1.9908068E-1,6.384652E-2,-2.569657E-2,3.390892E-1,4.3256924E-1,1.8926468E-1,3.1066447E-1,1.2606464E-1,-5.5466825E-1,2.9802695E-1,-5.991522E-1,3.086597E-2,1.2579763E-3,3.1360993E-1,2.0863111E-1,-4.0475166E-1,3.62275E-1,2.8125929E-2,5.016733E-1,3.088585E-1,7.034167E-1,2.78459E-1,-3.037273E-3,-9.8993635E-1,-3.2289994E-1,-7.848654E-1,-7.0247835E-1,-1.0953193E0],"split_indices":[301921,396305,156268,366239,301921,396305,244560,366239,301921,366239,181704,366239,207562,135171,207562,359924,0,257134,304572,28100,0,0,28100,396305,0,396305,301921,304125,213328,0,0,0,0,0,0,0,87410,0,12538,27777,0,301921,0,0,156268,0,353851,141899,396305,0,135171,0,0,0,0,0,0,0,0,0,0,0,0,0,0,0,0,0,0],"split_type":[0,0,0,0,0,0,0,0,0,0,0,0,0,0,0,0,0,0,0,0,0,0,0,0,0,0,0,0,0,0,0,0,0,0,0,0,0,0,0,0,0,0,0,0,0,0,0,0,0,0,0,0,0,0,0,0,0,0,0,0,0,0,0,0,0,0,0,0,0],"sum_hessian":[5.2570793E4,1.512384E3,5.1058406E4,4.869531E2,1.025431E3,3.4960367E2,5.0708805E4,1.0004525E1,4.7694858E2,6.3993915E2,3.8549185E2,2.5569211E2,9.391155E1,5.066649E4,4.2314453E1,3.673623E0,6.330902E0,6.5346176E1,4.116024E2,6.383445E2,1.5946834E0,1.6072462E0,3.8388458E2,2.5455736E2,1.1347582E0,1.7668169E1,7.624338E1,5.0574547E4,9.194359E1,2.4731682E1,1.7582771E1,1.1391149E0,2.5345082E0,1.1053346E0,6.4240845E1,1.8455397E1,3.93147E2,1.2247543E0,6.371197E2,3.8146832E2,2.4162846E0,2.5302866E2,1.5286933E0,1.4357222E0,1.6232447E1,1.7756365E1,5.8487015E1,5.0423863E4,1.5068172E2,3.532313E1,5.6620457E1,6.1885276E0,3.8695847E2,1.0127679E0,6.3610693E2,3.8024017E2,1.2281487E0,2.5201962E2,1.0090375E0,4.5962963E0,1.1636151E1,5.5342503E1,3.144513E0,5.0363895E4,5.996787E1,4.9782124E1,1.0089959E2,2.062366E1,3.59968E1],"tree_param":{"num_deleted":"0","num_feature":"403159","num_nodes":"69","size_leaf_vector":"1"}},{"base_weights":[1.9052585E-3,1.0117905E0,-1.0926502E-2,-6.7697966E-1,1.0284128E0,-1.283092E0,-8.879369E-4,1.0514295E0,-3.7968007E-1,7.559341E-1,-1.3079581E0,-5.021916E0,1.6690743E-3,-5.678115E-1,1.0635458E0,2.7015066E-1,3.752681E-2,-1.3324821E0,2.435527E-1,-4.1360804E-1,-1.6033161E0,9.775063E-3,-1.5584483E0,-4.057339E-1,1.070725E0,-1.5515859E0,-1.100981E0,-1.0839554E0,2.1441553E-2,-2.2404585E0,-1.118883E0,-2.153894E-1,3.2361412E-1,-7.288507E-2,-4.8347133E-1,-3.3297622E-1,8.594606E-2,-4.5051655E-1,-3.196097E-1,-1.6148403E0,7.1650557E-3,3.2465494E-1,-7.057764E-1,-3.4357998E-1,-1.1658826E-1],"categories":[],"categories_nodes":[],"categories_segments":[],"categories_sizes":[],"default_left":[0,0,0,0,1,0,0,0,0,0,1,0,1,0,0,0,0,1,0,0,0,0,1,0,0,0,1,0,0,0,0,0,0,0,0,0,0,0,0,0,0,0,0,0,0],"id":22,"left_children":[1,3,5,-1,7,9,11,13,-1,15,17,19,21,-1,23,-1,-1,25,-1,-1,-1,27,29,-1,31,33,35,37,39,41,43,-1,-1,-1,-1,-1,-1,-1,-1,-1,-1,-1,-1,-1,-1],"loss_changes":[6.776038E2,3.7963562E1,6.594014E2,0E0,3.583252E1,2.148529E1,6.577504E2,2.511029E1,0E0,3.8933945E-1,2.1862793E1,2.326764E1,6.4757666E2,0E0,1.2643616E1,0E0,0E0,1.8355225E1,0E0,0E0,0E0,6.500422E2,7.684192E1,0E0,9.978577E0,1.53689575E1,2.746338E0,2.5757446E0,6.6532526E2,4.082202E1,2.6943512E0,0E0,0E0,0E0,0E0,0E0,0E0,0E0,0E0,0E0,0E0,0E0,0E0,0E0,0E0],"parents":[2147483647,0,0,1,1,2,2,4,4,5,5,6,6,7,7,9,9,10,10,11,11,12,12,14,14,17,17,21,21,22,22,24,24,25,25,26,26,27,27,28,28,29,29,30,30],"right_children":[2,4,6,-1,8,10,12,14,-1,16,18,20,22,-1,24,-1,-1,26,-1,-1,-1,28,30,-1,32,34,36,38,40,42,44,-1,-1,-1,-1,-1,-1,-1,-1,-1,-1,-1,-1,-1,-1],"split_conditions":[2.847288E-2,2.0385675E-1,3.204311E-1,-6.7697966E-1,8.181091E-2,9.5904924E-2,7.732055E-1,2.5947967E-1,-3.7968007E-1,6.989377E-2,2.6315624E-1,2.2562662E-1,1.224534E-1,-5.678115E-1,1.1759145E0,2.7015066E-1,3.752681E-2,3.749943E-2,2.435527E-1,-4.1360804E-1,-1.6033161E0,1.1426482E0,3.6315985E-2,-4.057339E-1,1.2735079E-1,1.8499461E-1,2.3616533E-1,2.3898189E-1,9.753204E-1,1.679823E0,4.0282774E-1,-2.153894E-1,3.2361412E-1,-7.288507E-2,-4.8347133E-1,-3.3297622E-1,8.594606E-2,-4.5051655E-1,-3.196097E-1,-1.6148403E0,7.1650557E-3,3.2465494E-1,-7.057764E-1,-3.4357998E-1,-1.1658826E-1],"split_indices":[396305,333756,287055,0,87410,287055,101890,67144,0,287055,378021,359924,91837,0,66480,0,0,396305,0,0,0,391805,396305,0,181646,353851,289317,213328,391831,26423,91837,0,0,0,0,0,0,0,0,0,0,0,0,0,0],"split_type":[0,0,0,0,0,0,0,0,0,0,0,0,0,0,0,0,0,0,0,0,0,0,0,0,0,0,0,0,0,0,0,0,0,0,0,0,0,0,0,0,0,0,0,0,0],"sum_hessian":[5.228802E4,6.550672E2,5.1632953E4,2.6327896E0,6.5243445E2,4.032491E2,5.1229703E4,6.464896E2,5.9448266E0,4.5041957E0,3.9874493E2,2.5076826E1,5.1204625E4,2.0135317E0,6.444761E2,3.316673E0,1.1875226E0,3.945518E2,4.1931496E0,2.468094E0,2.2608732E1,5.0940945E4,2.6368295E2,1.3542001E0,6.431219E2,1.9977388E2,1.947779E2,5.366667E2,5.0404277E4,1.01736336E2,1.6194661E2,2.4643881E0,6.406575E2,8.977217E0,1.9079666E2,1.9372969E2,1.0482023E0,1.9464218E1,5.1720245E2,2.177029E1,5.0382508E4,3.0388014E0,9.869753E1,1.5575116E2,6.1954546E0],"tree_param":{"num_deleted":"0","num_feature":"403159","num_nodes":"45",